conv2d/kernel:0
(5, 5, 1, 16)
[[[[ 3.50141674e-02  4.99658883e-02 -1.56400464e-02 -9.74684432e-02
     1.59998924e-01  5.74629381e-02  1.67048693e-01 -2.11520329e-01
    -4.24163565e-02 -1.94227546e-02 -1.26730338e-01 -1.84826538e-01
     1.03699006e-01 -2.07101777e-01 -6.34181425e-02  1.00476108e-01]]

  [[-5.61971217e-02  5.33861294e-02 -1.43254846e-01  8.64514560e-02
     5.07159866e-02  7.90028051e-02  1.04137212e-01 -1.53375521e-01
     1.02990910e-01  7.77246654e-02 -1.55491427e-01 -1.75033823e-01
     6.19175322e-02 -1.67627037e-01 -9.77059305e-02  7.05322549e-02]]

  [[-1.30103482e-02 -3.64238359e-02  1.29209891e-01  1.92622408e-01
     1.27030358e-01 -6.02708794e-02  1.34404868e-01 -1.58855930e-01
    -7.99153820e-02 -8.49720836e-02  1.83624569e-02  2.20280383e-02
     2.35988423e-02 -1.43818930e-01  9.15409923e-02  1.50444373e-01]]

  [[ 7.12342113e-02 -5.81761934e-02  2.00895090e-02 -2.32294332e-02
     9.82369706e-02  4.17786203e-02  8.84350613e-02  9.21709463e-02
    -9.79922637e-02  1.07337810e-01  1.02765620e-01 -7.92594720e-03
     1.11963056e-01  2.66492646e-02  3.67709100e-02  1.90593842e-02]]

  [[ 9.14227217e-02 -1.10484749e-01 -1.81377679e-02 -1.02106720e-01
     2.11353488e-02 -3.17319892e-02  1.63551956e-01  1.70281067e-01
    -7.23754689e-02  5.10715395e-02  3.64419296e-02  1.35116339e-01
     8.97878557e-02  2.57452056e-02  5.36669455e-02  1.60083219e-01]]]


 [[[-7.20856339e-02 -2.02039108e-02 -1.68421522e-01 -1.51234968e-02
    -3.11418511e-02  1.51471704e-01 -1.02368638e-01 -2.34549399e-02
     9.38460231e-02  5.98790012e-02 -1.01116218e-01 -1.96662650e-01
    -1.49689198e-01 -1.02044279e-02  1.12230301e-01  1.45325571e-01]]

  [[ 9.15397629e-02 -3.29855494e-02 -2.41224784e-02  2.31220573e-02
     1.14509687e-01  1.55702174e-01  5.74688939e-03 -5.94941191e-02
    -3.95704098e-02 -1.18176445e-01  6.56848103e-02 -3.96063402e-02
     2.01678853e-02  9.24533084e-02  1.09903462e-01  7.41397068e-02]]

  [[ 1.50628742e-02  2.14048047e-02  1.29057512e-01  1.58395573e-01
     1.90828666e-02  1.07249439e-01  4.77303490e-02  7.66483461e-03
    -9.55550596e-02 -2.22721398e-01 -4.20835391e-02  5.53473681e-02
     1.06173724e-01  9.84252691e-02  1.10455379e-01  1.39291152e-01]]

  [[ 4.33714725e-02 -1.30816147e-01 -3.44783850e-02  8.20376724e-03
     2.30739620e-02  8.65048319e-02  1.30748181e-02  2.11958170e-01
    -1.50911376e-01 -7.42009133e-02  1.09821655e-01  2.48514395e-02
     3.11026853e-02  1.59164086e-01  1.01958744e-01  1.43702418e-01]]

  [[ 6.01266064e-02 -1.35331228e-01  5.45132048e-02  5.84444292e-02
     1.32993296e-01  1.02853179e-01  1.97622441e-02  1.94503590e-02
    -2.29731366e-01  6.69489130e-02  4.99383360e-02  5.59140295e-02
    -6.61984086e-02  1.00377038e-01 -7.71568865e-02  1.45715758e-01]]]


 [[[ 1.42748639e-01 -7.25499466e-02 -4.25306931e-02 -1.98247924e-01
    -7.98539296e-02 -1.04259670e-01 -9.60152224e-02  3.48071344e-02
     1.25918925e-01  1.13784626e-01 -5.07748760e-02 -1.53379574e-01
     1.08984215e-02  1.49225935e-01  1.55888107e-02 -1.57191828e-01]]

  [[ 1.65909395e-01  4.01130319e-02 -1.90219246e-02 -9.84068215e-02
     4.65163030e-03  1.00109920e-01 -8.47910941e-02  7.36187696e-02
     1.58544138e-01  3.86015289e-02 -9.70790908e-02  7.54264072e-02
    -9.24980715e-02  7.36205801e-02  7.08397627e-02 -2.69277673e-02]]

  [[ 3.23061682e-02  1.97231933e-01  2.23496594e-02  7.92438015e-02
     6.47292361e-02 -3.68603654e-02 -1.48350354e-02  3.21635380e-02
     5.17219724e-03 -1.95407629e-01 -2.55632717e-02  1.32783696e-01
     1.41781876e-02  7.21345395e-02 -3.48772891e-02 -1.43197715e-01]]

  [[ 8.45826417e-02  1.39084965e-01  4.26867381e-02  6.24290667e-02
     1.08918443e-01 -3.84341925e-02 -4.68396321e-02  6.73258007e-02
    -3.36225815e-02 -1.83567673e-01  6.24743886e-02  1.29416898e-01
     1.25068314e-02  1.05513409e-01  9.04149860e-02 -1.09211303e-01]]

  [[ 1.37123182e-01  1.52301729e-01  1.30975828e-01  1.38014518e-02
     3.17126587e-02  1.54969394e-01 -2.33120486e-01  2.63878703e-02
    -1.92862287e-01 -4.07636948e-02  7.93155003e-03 -9.17561650e-02
     5.60910739e-02 -9.61279788e-04 -1.21716321e-01 -9.43330154e-02]]]


 [[[ 1.43209833e-03 -1.84825119e-02  7.17955753e-02 -1.72847569e-01
    -2.54141212e-01 -9.64677334e-02 -2.45640844e-01  1.41881526e-01
    -1.68152135e-02  8.49408004e-03 -1.59377858e-01 -7.81192705e-02
    -1.34479791e-01  1.11886568e-01 -3.73156294e-02 -8.70901644e-02]]

  [[-1.15252830e-01  5.94968759e-02  4.44928370e-02 -4.55810688e-02
    -1.72840312e-01  2.57756002e-02 -2.63384789e-01 -1.44967027e-02
     1.87770829e-01  7.29035661e-02  7.65206814e-02  1.85833156e-01
    -5.69721907e-02  2.15529054e-02  9.99222696e-02 -2.66913414e-01]]

  [[ 2.87310481e-02 -2.42407173e-02 -6.57046139e-02  1.63674742e-01
    -1.20473452e-01  2.55395696e-02 -3.79191309e-01 -9.93715823e-02
     1.82978645e-01  7.94170946e-02  1.59605131e-01  5.42845875e-02
     1.60097554e-01 -7.93898925e-02  3.91284600e-02 -1.92980334e-01]]

  [[-8.69808495e-02  2.09435537e-01  1.49406597e-01  4.92172912e-02
    -6.50658682e-02  5.57876658e-04 -3.32225978e-01 -5.16830236e-02
     2.60616355e-02  1.06569558e-01  1.51879236e-01  2.44575087e-02
     5.87052666e-03 -8.19082335e-02  9.71899703e-02 -1.33553252e-01]]

  [[-1.69714876e-02  1.15572974e-01  1.09917946e-01 -8.45644772e-02
     1.49520868e-02 -2.50724843e-03 -1.50036901e-01 -1.49128912e-02
    -3.17687877e-02 -1.09923527e-01  3.19943540e-02 -1.04758963e-01
     8.66427422e-02 -9.32579488e-03  4.85249273e-02  1.96426250e-02]]]


 [[[-1.82789773e-01  3.24438065e-02 -1.36369869e-01 -2.07929209e-01
    -9.07351449e-02 -1.36679634e-01 -1.00532219e-01 -9.21045914e-02
    -1.66848097e-02  5.20882681e-02  4.96024080e-02  1.58200443e-01
     1.64488088e-02 -8.96603242e-02 -2.86031198e-02 -7.02360868e-02]]

  [[-1.31578639e-01 -8.91671851e-02 -8.90834853e-02 -1.24793380e-01
    -1.77751184e-01 -6.15563653e-02 -4.02078964e-02 -1.35141388e-01
    -1.11938594e-02  8.25158730e-02  1.70042040e-05  1.68061465e-01
     5.46775497e-02 -1.50956064e-01  7.56294355e-02  4.36899774e-02]]

  [[-7.96159729e-02 -1.95576862e-01  6.23075217e-02  1.21278696e-01
    -2.09237948e-01 -1.06790692e-01 -3.66651341e-02 -7.34079555e-02
     3.43296826e-02  9.60759744e-02  1.35623962e-01 -1.07777946e-01
     3.86653878e-02 -1.46208972e-01 -9.36033577e-02  5.76014370e-02]]

  [[-2.90079154e-02 -1.68463171e-01  2.35739984e-02  1.25770465e-01
    -2.26340815e-01 -8.07771608e-02  8.93870369e-02  3.45579349e-02
     1.87048763e-01  7.78534263e-02 -7.07172006e-02 -8.28363299e-02
     6.78634131e-03  8.57911818e-03 -5.84043972e-02 -4.25763167e-02]]

  [[ 8.53704512e-02 -7.04206005e-02 -9.52612534e-02  3.07670068e-02
    -1.29753321e-01 -1.71285197e-01  1.44579127e-01  8.69610533e-02
     1.29510552e-01  5.41483127e-02 -2.00828135e-01 -2.75266975e-01
    -1.97919503e-01  4.25158441e-02  7.51116872e-02  5.57072014e-02]]]]
conv2d/bias:0
(16,)
[-0.03628514 -0.03911848 -0.00109215 -0.04765347  0.02049007  0.00136944
  0.0258915  -0.03791287 -0.09578085 -0.07872425 -0.08488242 -0.05810817
 -0.10593909 -0.020376   -0.10868241 -0.03202295]
conv2d_1/kernel:0
(5, 5, 16, 32)
[[[[-3.22805755e-02  1.39022386e-02  1.46943489e-02 ...  1.18437055e-02
     6.09253533e-02  6.76677823e-02]
   [ 1.12408094e-01 -4.57190424e-02 -2.65193376e-04 ... -1.62443355e-01
     2.73806080e-02  3.64595540e-02]
   [ 7.37803336e-03 -1.87807884e-02 -1.49962888e-03 ...  2.15221439e-02
    -6.09950423e-02 -1.77815836e-02]
   ...
   [ 2.31923833e-02 -7.00727850e-02  7.22244009e-02 ...  3.41910943e-02
     6.67054355e-02 -2.60011274e-02]
   [ 4.68991436e-02 -1.52778672e-02 -4.44031656e-02 ...  3.99533883e-02
     2.74588144e-03 -1.94107126e-02]
   [-1.90804955e-02  1.70549024e-02 -3.58682349e-02 ...  1.14206725e-03
     3.43962535e-02  4.39494150e-03]]

  [[-6.10971563e-02  4.44117151e-02 -6.06930405e-02 ... -1.14432670e-01
     6.90959096e-02 -4.77816053e-02]
   [ 3.55774760e-02  5.07475697e-02 -3.25273946e-02 ... -1.26633063e-01
     2.65842937e-02 -2.93428525e-02]
   [-1.37933297e-02 -5.52486181e-02 -1.61679229e-03 ... -4.06487137e-02
     9.21600312e-02 -2.80485285e-04]
   ...
   [ 3.86406034e-02 -3.22071873e-02  2.99704112e-02 ...  1.88278630e-02
     2.85102818e-02  6.58228844e-02]
   [ 3.31781432e-02 -1.13432139e-01  5.43416291e-02 ... -1.01857726e-02
    -3.87634337e-03 -1.23962210e-02]
   [-1.10303268e-01 -3.96664161e-03 -1.73213836e-02 ... -4.30612452e-03
     4.73581813e-02  5.40149435e-02]]

  [[ 1.88885275e-02  3.86354364e-02  1.67499632e-02 ... -6.18946590e-02
     1.19644515e-02  1.10981688e-02]
   [ 9.85533297e-02  1.08960487e-01 -4.70511392e-02 ... -2.11156458e-02
    -7.80590922e-02 -1.74661295e-03]
   [-4.64994274e-02  8.49412084e-02  5.97596690e-02 ... -9.38387439e-02
     7.89344311e-02  1.42291673e-02]
   ...
   [-1.11012720e-03  9.39689055e-02 -3.47030945e-02 ... -9.60462466e-02
     1.85642764e-02  7.30303824e-02]
   [-4.88934927e-02  1.80635694e-02  4.03041579e-02 ... -7.56762922e-03
     1.55364135e-02 -8.43559131e-02]
   [-1.59769908e-01  2.03255564e-02 -1.21940039e-01 ...  5.68149313e-02
    -3.79531868e-02 -2.78566591e-02]]

  [[-5.05339028e-03  1.33437932e-01 -6.58701360e-02 ... -4.70250659e-02
    -9.74464938e-02 -1.40282707e-02]
   [ 8.74026045e-02  6.06831303e-03  2.79178880e-02 ...  5.00454158e-02
     5.40365689e-02  1.24322936e-01]
   [-6.74987808e-02 -1.10527715e-02 -3.04123480e-02 ... -8.78464878e-02
     1.25174318e-03 -4.36797515e-02]
   ...
   [ 5.07404804e-02  2.45899744e-02 -6.01258539e-02 ... -6.49208724e-02
     3.91225554e-02  2.91451085e-02]
   [ 7.22682523e-03 -2.15773452e-02  4.34991792e-02 ... -3.27246189e-02
    -5.62331863e-02 -4.96200621e-02]
   [-8.83777440e-02 -1.89094860e-02 -6.69335425e-02 ...  5.96914813e-02
    -4.83283661e-02  1.14587499e-02]]

  [[-2.70948447e-02  8.77256040e-03 -6.82740659e-02 ...  6.50845282e-03
     3.37464618e-03 -2.29031146e-02]
   [ 2.61625051e-02 -6.18803799e-02 -3.01623195e-02 ...  1.53402388e-01
    -4.18436481e-03  1.36096105e-01]
   [ 3.45657133e-02 -7.87066221e-02 -4.29241508e-02 ...  6.51523992e-02
    -6.70161769e-02 -4.42089736e-02]
   ...
   [ 9.07672495e-02 -1.27250445e-03 -4.26978208e-02 ...  4.21949178e-02
    -8.62162095e-03  2.12426726e-02]
   [ 2.85970960e-02 -2.60436367e-02  6.43405616e-02 ... -4.36505973e-02
    -6.90597445e-02 -1.31320413e-02]
   [-6.37841970e-02  1.63867604e-02  2.54038367e-02 ... -9.05932486e-02
    -6.08002534e-04  8.55293050e-02]]]


 [[[ 3.51000130e-02 -7.39721060e-02  5.60555346e-02 ... -4.16118875e-02
     5.63933663e-02 -2.84278835e-03]
   [ 1.82907596e-01 -1.02515578e-01  1.12396916e-02 ...  1.08502388e-01
     1.23422313e-03  9.31758359e-02]
   [ 4.58868928e-02 -1.42813206e-01  1.54316649e-02 ... -3.41138616e-02
     6.32494166e-02  3.36463749e-02]
   ...
   [ 4.07098839e-03 -1.12003855e-01  2.17023641e-02 ... -5.01219817e-02
     1.97777189e-02  5.89352772e-02]
   [ 4.19718176e-02 -7.42605776e-02 -1.22956457e-02 ...  8.55581164e-02
    -1.55899599e-02  2.01372243e-02]
   [ 6.30064234e-02 -4.71842997e-02  1.07442312e-01 ... -7.21734017e-02
     5.78358099e-02  8.64806119e-04]]

  [[-2.67823618e-02 -6.35950714e-02  9.71839353e-02 ... -1.13477558e-01
     8.01749527e-02  5.74362874e-02]
   [ 1.35287926e-01 -8.22069272e-02 -1.80825904e-01 ...  4.00855914e-02
    -1.72414094e-01  1.05886571e-01]
   [ 6.56422824e-02 -1.71362460e-01 -1.74929586e-03 ... -1.07650794e-01
     6.84988722e-02  6.05514133e-03]
   ...
   [ 6.26867935e-02 -1.12958238e-01  8.38613287e-02 ... -2.69300379e-02
    -3.22561674e-02  5.51833957e-02]
   [ 6.78386390e-02 -3.54111604e-02 -1.89252980e-02 ... -1.81556400e-02
     5.19437939e-02 -3.42517137e-03]
   [ 3.26578282e-02  1.13399789e-01  1.80044025e-02 ... -1.37668088e-01
    -2.94229612e-02  3.71091031e-02]]

  [[ 3.97443175e-02 -8.06113407e-02 -1.45177888e-02 ... -9.57583636e-02
    -7.14366361e-02 -3.70299742e-02]
   [-2.56767180e-02 -4.95262742e-02 -3.82908471e-02 ... -6.67425171e-02
     1.93973128e-02  1.36100233e-01]
   [-5.06572984e-03 -1.37611061e-01  1.29976310e-02 ... -9.43908915e-02
     4.89450283e-02 -4.49252054e-02]
   ...
   [ 8.76467600e-02 -1.01368621e-01 -1.34557448e-02 ... -6.51941299e-02
     2.91455854e-02 -6.72873333e-02]
   [ 3.23922932e-02 -1.19348727e-01  1.74964517e-02 ... -1.08339608e-01
     6.10717051e-02  4.99719866e-02]
   [-4.57208492e-02 -2.49531493e-02 -1.49428368e-01 ...  1.38158835e-02
    -1.29412249e-01 -2.65059471e-02]]

  [[ 6.71810657e-02 -9.45601240e-02 -4.28976724e-03 ... -1.35214388e-01
     3.14581096e-02  1.54974312e-02]
   [ 3.74147133e-03 -1.92848533e-01  8.64479169e-02 ... -1.00096054e-01
    -1.01645980e-02  7.65005946e-02]
   [ 2.72275116e-02 -4.89853397e-02 -1.51741877e-02 ... -1.35215148e-01
    -1.03437610e-01  2.62062587e-02]
   ...
   [ 2.82291677e-02 -1.61019877e-01  4.20149090e-03 ... -5.50557412e-02
     5.46803288e-02  2.68745422e-02]
   [ 6.27200156e-02 -8.38681608e-02  3.27781849e-02 ... -1.23845376e-01
     4.56802966e-03  4.80213314e-02]
   [-6.11733180e-03  3.13066691e-02  1.50820957e-02 ... -3.15726437e-02
    -3.23787779e-02 -7.91617334e-02]]

  [[-9.95664205e-03 -6.58549219e-02  2.13887915e-02 ...  2.48142127e-02
    -3.44559848e-02 -7.10421205e-02]
   [ 3.27496789e-02 -2.04680473e-01  1.58428829e-02 ... -1.44197330e-01
     9.96931940e-02  6.49777353e-02]
   [-8.11683163e-02 -9.88144949e-02 -8.08451399e-02 ... -7.45239854e-02
    -3.96497175e-02  1.42467907e-02]
   ...
   [-6.03216588e-02 -1.72007322e-01  4.24984023e-02 ...  2.58561224e-02
    -5.39521910e-02 -1.40570840e-02]
   [ 2.42230538e-02 -1.17636122e-01 -5.77909239e-02 ... -9.11291167e-02
    -1.56884566e-02 -4.78675179e-02]
   [-2.79612280e-02  8.91317055e-03  6.74034804e-02 ...  1.02767862e-01
     4.11354303e-02  4.48482893e-02]]]


 [[[-2.35869661e-02 -3.42078544e-02  5.97642288e-02 ...  2.20995173e-02
     1.47708869e-02  4.83183097e-03]
   [-7.18617626e-03  7.14075714e-02 -1.46275014e-01 ...  9.59271938e-02
    -8.87184218e-02  4.12334055e-02]
   [-3.91453393e-02 -5.09796105e-02  6.92104548e-02 ... -1.37274396e-02
     4.68455479e-02  2.48158146e-02]
   ...
   [ 5.44139221e-02  5.23148328e-02  9.67270602e-03 ... -4.77508157e-02
     4.50145565e-02 -8.40050727e-02]
   [-4.27305140e-02  7.11670192e-03  3.14384177e-02 ...  3.84402946e-02
    -3.27292606e-02 -2.14262344e-02]
   [ 5.51013052e-02 -1.60592645e-02  6.78215474e-02 ...  3.53609025e-02
    -2.51346380e-02 -3.82601321e-02]]

  [[ 4.08359505e-02 -2.41545402e-03 -2.73536183e-02 ...  4.46014665e-02
    -3.06699220e-02 -7.14477301e-02]
   [ 1.15906343e-01  1.05767749e-01 -1.70618400e-01 ...  9.21070650e-02
    -1.45019710e-01  6.46046549e-02]
   [ 5.99841401e-02  2.88720243e-03  1.07028633e-01 ...  1.32491405e-04
     6.52707517e-02  5.05268052e-02]
   ...
   [ 2.75865961e-02 -2.37529445e-02  6.48502856e-02 ... -3.23121995e-02
    -1.64011847e-02  2.47630253e-02]
   [ 1.76272653e-02 -4.21444215e-02  4.12734151e-02 ...  6.03452846e-02
     4.33372185e-02 -4.08007577e-02]
   [-2.08963137e-02 -8.35258514e-02 -1.42480329e-01 ... -3.03662047e-02
    -1.23867519e-01  9.72898975e-02]]

  [[ 1.12921624e-02 -4.78979014e-02  2.24313606e-02 ... -7.74660781e-02
    -3.70993316e-02  7.89854005e-02]
   [-2.23347675e-02  1.44720316e-01 -1.28974229e-01 ... -2.40059104e-03
     3.13526392e-02  1.20599888e-01]
   [ 1.65437218e-02 -3.60726640e-02 -1.45698888e-02 ... -6.60305470e-02
    -7.42472708e-02 -2.16170754e-02]
   ...
   [-9.80664492e-02 -1.47494217e-02  4.00820635e-02 ...  1.40922619e-02
    -4.81773494e-03  4.47090063e-03]
   [ 8.50055087e-03  1.83806065e-02  1.05186947e-01 ... -1.65752377e-02
     5.19285128e-02  3.32703676e-05]
   [-5.00343852e-02 -1.49603099e-01 -1.12990804e-01 ... -1.73695579e-01
    -1.09240644e-01  7.46897459e-02]]

  [[ 5.50461560e-02 -4.18006331e-02  2.95330584e-02 ... -1.77434966e-01
    -4.90731373e-02  1.68949645e-02]
   [-2.39642523e-02  3.30231264e-02  2.04974525e-02 ...  1.29896894e-01
     6.33482635e-02  2.24055097e-01]
   [ 1.57675315e-02  7.51075149e-02 -8.57506171e-02 ... -6.04289509e-02
    -8.79436582e-02  4.28828448e-02]
   ...
   [-8.07592832e-03  1.24939007e-03  4.45120484e-02 ... -8.09467509e-02
     4.06115287e-04  1.21548548e-02]
   [ 4.42139730e-02 -4.00410257e-02  5.23173064e-02 ...  9.57979634e-03
    -4.05993871e-03  8.54066983e-02]
   [-1.59561127e-01 -9.30288136e-02  4.12354134e-02 ... -1.29509181e-01
     3.43861319e-02  4.10102680e-03]]

  [[-8.30698311e-02 -9.45501402e-02 -6.77853227e-02 ... -1.65414944e-01
    -9.06542223e-03 -3.60561311e-02]
   [-2.51248516e-02  1.39751792e-01  2.16948856e-02 ... -7.85411149e-02
     6.37093410e-02  4.38318178e-02]
   [-3.44531722e-02  4.14326116e-02 -1.85187608e-02 ... -2.29646210e-02
     5.27658453e-03  4.45438102e-02]
   ...
   [ 7.72839691e-03 -2.67662253e-04  2.93236207e-02 ... -1.27372205e-01
    -1.34666022e-02 -3.46180759e-02]
   [ 4.04570103e-02 -5.68961725e-02 -3.45293358e-02 ...  3.39298137e-02
    -4.71648946e-02  6.57048374e-02]
   [ 5.54234870e-02 -1.83672532e-01  3.84225920e-02 ... -1.55725315e-01
     1.00209443e-02  1.46095492e-02]]]


 [[[-2.46053189e-02  1.00718709e-02  7.57660791e-02 ... -3.91242653e-03
    -3.75337601e-02 -1.38566464e-01]
   [ 9.34353620e-02  5.27379923e-02 -1.89356625e-01 ... -2.98584718e-02
    -1.06431633e-01 -2.29773119e-01]
   [-7.39113912e-02 -3.80377099e-03  5.31104580e-03 ...  7.65812844e-02
     3.13727818e-02 -1.58612460e-01]
   ...
   [-1.32830665e-02  5.96299618e-02  3.00216842e-02 ...  5.07916920e-02
    -4.12208699e-02 -8.63199383e-02]
   [-4.01519015e-02  2.06494406e-02  5.41902855e-02 ... -2.75037549e-02
     3.65557224e-02 -1.02366470e-01]
   [ 6.06132559e-02  1.05515122e-01 -2.47109961e-02 ...  1.34599600e-02
     6.31738873e-03 -2.06921436e-02]]

  [[ 7.59688243e-02 -8.36026892e-02  9.12666023e-02 ...  1.51335495e-02
     2.78273746e-02 -4.50770594e-02]
   [-7.77068809e-02  3.46693471e-02 -1.00366026e-01 ... -4.17084321e-02
    -1.13220885e-01 -1.20907001e-01]
   [ 5.96327037e-02 -1.32953469e-02  8.49739835e-02 ...  1.92450993e-02
    -7.14266952e-03 -1.74054056e-01]
   ...
   [ 1.01224452e-01  2.82117501e-02  1.92919578e-02 ... -1.73504036e-02
     9.58681479e-03 -6.33863509e-02]
   [-2.09946409e-02  9.29588859e-04 -2.40915269e-02 ... -2.71889716e-02
     6.41873628e-02 -1.21648207e-01]
   [ 5.96268363e-02  4.98614348e-02 -1.38563886e-01 ...  4.76743765e-02
    -1.60270687e-02 -6.36029914e-02]]

  [[ 7.99339935e-02  2.72203889e-02 -6.27721250e-02 ...  3.30323353e-02
    -6.66576717e-03  5.37458342e-03]
   [-3.93576063e-02 -8.56195167e-02  4.95086238e-02 ... -5.29898889e-02
     1.05816446e-01 -1.07820518e-03]
   [ 2.66874768e-03 -6.46656081e-02 -6.36721775e-02 ...  4.42216992e-02
    -8.75833444e-03 -9.35900770e-03]
   ...
   [ 7.59613886e-02  2.87238527e-02 -1.26546100e-01 ... -3.04296557e-02
     4.20613512e-02 -8.29498321e-02]
   [ 3.83025184e-02  5.80459461e-02  2.78478842e-02 ...  3.42772454e-02
    -4.39410359e-02 -5.84409796e-02]
   [-3.33486572e-02  1.17107905e-01 -1.69111893e-01 ...  1.14326887e-01
    -6.48717061e-02 -1.79205835e-02]]

  [[ 7.22630322e-02  7.05869794e-02 -8.48994106e-02 ...  6.58700839e-02
    -3.14834900e-02  1.04323421e-02]
   [-4.00935374e-02  2.40820069e-02  5.91392033e-02 ...  9.43757892e-02
     1.48819471e-02  1.40657082e-01]
   [ 5.36021031e-02  7.77097493e-02 -1.15310602e-01 ...  7.52574876e-02
    -7.13746920e-02  7.38980621e-02]
   ...
   [-1.69833992e-02 -9.06343479e-03 -1.18691884e-01 ...  6.86442290e-05
    -3.83529291e-02  4.86094952e-02]
   [ 7.95166716e-02 -2.60973200e-02 -8.14968161e-03 ...  3.01819183e-02
    -8.60249326e-02 -2.54038759e-02]
   [-2.71684974e-02  1.02744579e-01 -9.34531391e-02 ... -1.98002793e-02
    -3.49544585e-02 -8.22722260e-03]]

  [[-6.02605045e-02  1.95640065e-02 -5.44273704e-02 ...  3.16949151e-02
     7.00550620e-03  7.66670257e-02]
   [-1.15240337e-02 -9.10438672e-02  3.98158617e-02 ...  1.00155242e-01
     1.03504173e-01  2.06762642e-01]
   [-7.35317916e-02 -9.36423801e-03  1.99741647e-02 ...  1.01742083e-02
    -3.83585840e-02  4.49617580e-02]
   ...
   [-7.81053975e-02  6.09930567e-02  2.23346390e-02 ...  1.68548822e-02
    -3.04651801e-02  1.42557761e-02]
   [-6.01826832e-02  8.12713802e-02 -6.36463240e-02 ...  6.27775714e-02
     3.86372544e-02  2.33664382e-02]
   [ 5.19956350e-02 -1.78538766e-02 -8.26540589e-02 ...  1.13815749e-02
     1.27139874e-02  1.43035859e-01]]]


 [[[-3.40199135e-02 -3.34817097e-02  8.20375681e-02 ... -4.22069915e-02
     5.18267117e-02 -1.42949671e-01]
   [ 2.88168266e-02 -9.75462422e-02 -2.81632617e-02 ... -1.81292612e-02
     2.04657353e-02  4.79002856e-02]
   [-1.33313574e-02  4.99798581e-02  5.42119555e-02 ...  7.96929821e-02
    -7.02643394e-02 -6.35668933e-02]
   ...
   [-2.81170420e-02  3.27641182e-02 -4.10467573e-02 ...  2.20462326e-02
     5.87969199e-02  3.77644319e-03]
   [-4.63973880e-02 -2.72429492e-02  3.05106491e-02 ...  7.01747984e-02
     1.33187487e-03 -3.36129554e-02]
   [-2.00467259e-02 -9.06890444e-03  4.21409719e-02 ... -4.60056216e-02
     1.73090082e-02 -1.26583442e-01]]

  [[ 7.88495392e-02  5.72664030e-02  1.77949276e-02 ... -3.93576775e-04
     3.55214961e-02 -1.07649259e-01]
   [-1.74262628e-01  2.64840759e-02  8.92378669e-03 ...  3.02654617e-02
     1.21881828e-01  8.05999339e-02]
   [-2.95518141e-04 -3.93025577e-02  5.25022969e-02 ... -1.80145376e-03
    -7.14443177e-02 -1.31364018e-01]
   ...
   [ 9.24546495e-02 -6.25453368e-02 -4.33428437e-02 ... -2.12256946e-02
     6.18427433e-03 -1.25079662e-01]
   [-4.08663452e-02 -1.44669628e-02  6.61570579e-02 ...  2.75141615e-02
     2.83771604e-02 -9.35182422e-02]
   [ 3.18200560e-03 -3.45679708e-02 -5.27938604e-02 ...  2.23343018e-02
     4.60923351e-02 -1.58453122e-01]]

  [[ 8.33650157e-02 -1.64620429e-02 -2.24479404e-03 ... -7.87333027e-03
     3.66084352e-02 -1.14344209e-01]
   [-1.07327215e-01 -1.59524352e-04  6.83161393e-02 ...  1.32838963e-02
     3.88281457e-02 -1.36867687e-01]
   [ 4.79926914e-02  8.07301924e-02  6.57556579e-02 ...  5.32307737e-02
     1.70403048e-02 -4.12738770e-02]
   ...
   [ 6.76780045e-02 -6.24768324e-02 -5.81904165e-02 ... -1.87757369e-02
    -1.10612631e-01 -1.11325294e-01]
   [-1.48883015e-02 -9.29990225e-03  1.31549016e-02 ...  7.24572018e-02
     2.97379238e-03 -6.58459067e-02]
   [ 5.66849038e-02 -1.37433084e-02 -1.30241057e-02 ... -1.55654373e-02
     5.01305088e-02 -9.57005620e-02]]

  [[ 5.74834924e-03 -2.24501104e-03 -8.66177827e-02 ...  8.65328610e-02
     1.89154111e-02 -9.43122208e-02]
   [ 7.46069923e-02  4.15047333e-02  9.25892219e-02 ...  1.01357579e-01
     4.72857915e-02 -1.08064845e-01]
   [-1.76331978e-02  7.96014667e-02 -2.69865654e-02 ... -6.45163236e-03
     2.63303909e-02 -3.77392769e-03]
   ...
   [ 1.98054705e-02 -4.92470674e-02  2.00429484e-02 ...  3.17748673e-02
    -5.17366007e-02 -8.60563740e-02]
   [ 5.29870167e-02 -6.29879860e-03  7.70345032e-02 ...  8.02561268e-02
    -9.94365569e-03 -3.83162424e-02]
   [-6.96026301e-03  1.45911435e-02 -1.09867314e-02 ...  5.64313792e-02
     6.54165596e-02  2.99938372e-03]]

  [[-8.19250271e-02  8.17246214e-02  5.08234240e-02 ...  6.90851510e-02
    -5.58389677e-03 -1.24769080e-02]
   [-2.61668507e-02  1.06025301e-02 -1.55632403e-02 ...  1.50582537e-01
     2.34153103e-02 -2.37260871e-02]
   [-8.51795599e-02 -5.31208888e-02  5.82405590e-02 ...  5.30526750e-02
    -5.54702394e-02  2.76280437e-02]
   ...
   [-5.18339053e-02  6.52884990e-02  7.65728056e-02 ...  2.66059656e-02
     5.58939986e-02 -4.43436876e-02]
   [ 6.36413321e-03 -1.33988895e-02 -1.94791500e-02 ...  2.39029359e-02
    -3.71579193e-02 -7.08533823e-02]
   [-1.08654052e-01 -5.65687940e-02  3.86323370e-02 ... -1.61318819e-03
    -3.96959074e-02  3.20769139e-02]]]]
conv2d_1/bias:0
(32,)
[ 3.7363719e-03 -4.0051758e-02  1.6879726e-02  3.1968702e-02
 -4.0667891e-03  1.9717896e-02 -2.7192451e-02 -8.5074827e-03
  9.2105018e-03  9.5769549e-03  8.5740758e-06  8.0640018e-03
 -2.3900557e-03 -1.6658030e-02  1.1274840e-03  1.8007915e-02
 -3.3146679e-02 -1.9252215e-02 -2.0645712e-02 -8.8702505e-03
 -9.5287515e-03  9.9804206e-03 -3.5124861e-02 -1.2341753e-02
 -6.9217309e-03  8.1459247e-03  4.3378104e-02  3.2242358e-02
 -3.3885948e-02 -8.7366477e-03 -2.1323455e-03  4.4637569e-03]
conv2d_2/kernel:0
(5, 5, 32, 64)
[[[[-1.04479836e-02  4.44126390e-02  8.82850140e-02 ...  7.95181319e-02
     6.78356886e-02  4.22168970e-02]
   [ 6.42678095e-03  4.66052070e-02 -3.16254832e-02 ... -1.51432054e-02
     2.88404096e-02  2.32251734e-02]
   [ 1.66135319e-02  5.82328625e-02  4.55131121e-02 ...  8.81607831e-02
     4.54501212e-02  1.92481875e-02]
   ...
   [ 6.76467717e-02 -6.45393878e-03 -1.85685959e-02 ... -7.00115180e-03
     6.02160767e-02  1.85479149e-02]
   [-4.07637805e-02 -3.34515125e-02  1.09779499e-02 ...  9.71609503e-02
     2.97611523e-02  2.81931590e-02]
   [ 1.11623043e-02 -3.32628563e-02 -3.22072655e-02 ...  1.02869086e-02
    -4.13351841e-02  2.06349418e-03]]

  [[ 2.45145783e-02 -4.08509560e-03 -7.57358223e-02 ... -7.37351179e-03
     4.30792682e-02  4.43644039e-02]
   [-4.06304486e-02  2.44095977e-02 -8.35768282e-02 ... -3.72818299e-02
     2.29039118e-02  3.92838381e-03]
   [-1.52351912e-02  4.35648821e-02  2.79100612e-02 ...  1.85620575e-03
    -9.40076932e-02  6.15962148e-02]
   ...
   [-2.22625732e-02  1.81215014e-02  8.45560059e-02 ...  6.63849935e-02
     4.03312594e-02 -3.05664875e-02]
   [-7.07854424e-03  4.56360094e-02 -4.00085747e-03 ...  6.25150651e-02
    -3.53221968e-02  5.22184521e-02]
   [-5.13322912e-02  4.01274413e-02  3.88431251e-02 ... -7.71577470e-03
     3.09455600e-02 -2.98123751e-02]]

  [[ 1.10570351e-02 -5.13678491e-02 -5.13687246e-02 ... -7.23684430e-02
     6.87581301e-02  3.23379748e-02]
   [ 6.13987492e-03  2.72366814e-02 -3.97303067e-02 ...  6.38006553e-02
     1.43252010e-03 -5.63333631e-02]
   [ 3.18495072e-02  5.07919379e-02  8.91233329e-03 ...  3.69308214e-03
     2.45898850e-02 -4.80478955e-03]
   ...
   [-2.41052397e-02  4.26416397e-02 -2.49886010e-02 ...  6.36845455e-02
     3.68386209e-02 -4.89567332e-02]
   [-4.53811847e-02  4.08096127e-02 -5.29198791e-04 ...  3.59875634e-02
    -3.64475176e-02 -2.29145363e-02]
   [ 1.10947005e-02  1.52657332e-03  6.95310673e-03 ...  6.15092181e-02
    -1.17743351e-02  2.04541124e-02]]

  [[ 1.95309718e-03 -5.62508740e-02  4.05205898e-02 ...  4.28715870e-02
     1.59448236e-02  1.09485574e-01]
   [ 2.85815131e-02  4.72324528e-02 -6.41707927e-02 ...  8.44655745e-03
     5.89347817e-02 -6.06197156e-02]
   [-2.44724490e-02 -8.67927354e-03 -1.02344140e-01 ... -1.51294675e-02
     2.10718792e-02 -8.87611997e-04]
   ...
   [-5.72300563e-03  6.87601864e-02 -8.51457119e-02 ...  6.40000477e-02
     1.13535356e-02 -8.76848679e-03]
   [ 3.55845876e-02  5.34083135e-02 -2.60973834e-02 ... -1.57164205e-02
     5.54949567e-02  3.98226380e-02]
   [-1.86937544e-02 -4.46344353e-02  3.70881446e-02 ...  2.13682055e-02
     9.55334119e-03  7.12885633e-02]]

  [[ 5.34093380e-02 -6.19481318e-02  2.95785237e-02 ... -5.77003276e-03
     5.92226572e-02  5.60285002e-02]
   [ 1.52509129e-02  6.11309856e-02 -6.93713501e-03 ...  2.13756673e-02
     5.37781343e-02 -2.89779399e-02]
   [-4.51065600e-02  3.16603668e-02 -4.01042588e-02 ...  5.68170426e-03
     2.71050613e-02  1.05292395e-01]
   ...
   [ 1.50650609e-02  2.67032366e-02 -2.90221162e-02 ...  5.15032634e-02
     3.55714336e-02  1.13301370e-02]
   [ 1.11477537e-04  2.19174996e-02  3.86329293e-02 ...  3.29918135e-03
    -6.36584908e-02  1.49397999e-01]
   [-1.14884239e-03  2.73082987e-03  6.05874695e-02 ...  1.58235710e-02
    -2.24476196e-02 -3.36438208e-03]]]


 [[[ 2.72028167e-02 -3.02510560e-02 -1.65639427e-02 ...  2.40851920e-02
     6.25186414e-02  6.23536259e-02]
   [-5.33556473e-03 -2.91631324e-03 -4.02123742e-02 ... -1.90584676e-03
     5.57525977e-02 -9.82653257e-03]
   [ 3.53319310e-02  1.79003645e-02  6.94199279e-02 ... -4.20804732e-02
     2.91198995e-02 -1.16272774e-02]
   ...
   [-7.45643973e-02  1.54478066e-02  5.04421890e-02 ...  2.66016126e-02
    -1.72056947e-02  3.18251364e-02]
   [-1.90790351e-02  7.71771744e-02  4.26843725e-02 ...  2.22713947e-02
    -3.66041027e-02 -4.05764729e-02]
   [-3.78240608e-02  1.64928827e-02  1.42717296e-02 ... -2.00468823e-02
    -6.92646280e-02  2.07417663e-02]]

  [[-1.59168802e-02 -1.26585424e-01 -2.65411139e-02 ... -2.50143111e-02
     1.00805871e-01  9.01578963e-02]
   [ 3.44748162e-02 -4.63256165e-02  3.50119583e-02 ... -8.21121596e-03
     7.42944330e-03 -2.77619343e-02]
   [ 4.19506207e-02 -3.65965478e-02  4.49092872e-02 ... -4.54830267e-02
    -4.16776119e-03  2.16964670e-02]
   ...
   [ 1.52485017e-02  1.82775818e-02  5.38225658e-02 ... -5.55748679e-02
     3.22885253e-02  5.33473641e-02]
   [-5.16126566e-02 -5.72935082e-02 -4.91181761e-02 ... -4.44696993e-02
     6.42611161e-02  4.88404259e-02]
   [-1.32639721e-01 -5.28634116e-02  5.86209893e-02 ... -1.29565839e-02
    -7.10251555e-02 -4.08411734e-02]]

  [[-4.80029024e-02 -1.60238631e-02 -3.17638069e-02 ... -1.19896354e-02
     6.30321875e-02  1.43169900e-02]
   [ 6.07677400e-02 -5.35821468e-02  3.26318154e-03 ...  1.43710217e-02
    -6.28912747e-02 -4.90649119e-02]
   [ 6.84866160e-02 -1.04636304e-01 -2.41556223e-02 ...  3.45746730e-03
    -2.40762848e-02  3.22292894e-02]
   ...
   [ 3.59765328e-02 -4.60100658e-02 -6.13265038e-02 ... -4.92404290e-02
    -3.17731164e-02  8.32307562e-02]
   [-3.08778584e-02 -4.95760404e-02 -8.64215121e-02 ... -5.29514179e-02
     6.99841604e-02  4.12003770e-02]
   [-1.37324333e-01  3.08817904e-02 -1.08893262e-02 ...  2.04774421e-02
    -5.83420992e-02 -1.79916069e-01]]

  [[-5.74514270e-02  4.02829796e-02 -2.75886506e-02 ...  2.16393042e-02
     1.40932389e-02 -7.42983148e-02]
   [-1.72546133e-04  4.40915413e-02  4.38278653e-02 ...  1.14821624e-02
    -1.64936874e-02 -1.89369321e-01]
   [-2.88534053e-02 -2.69634984e-02 -1.37043865e-02 ... -1.60858803e-03
     1.51594598e-02 -1.08123012e-02]
   ...
   [-4.25961129e-02  4.33341190e-02 -2.86875833e-02 ... -3.94942649e-02
     4.97573502e-02 -7.89058581e-02]
   [-4.64781560e-02 -1.47278477e-02 -1.25219136e-01 ...  2.40431074e-03
     2.88187824e-02 -9.73447189e-02]
   [ 3.30690481e-02 -5.23162186e-02 -6.34528399e-02 ... -6.44775527e-03
     4.52093184e-02 -3.32552791e-02]]

  [[ 1.92415714e-03  7.70733878e-03  2.73640212e-02 ... -4.30313777e-03
     4.62869108e-02  3.12507488e-02]
   [-8.06762129e-02  3.03423963e-02  4.44888137e-03 ... -2.89796051e-02
     8.47579986e-02 -1.34244516e-01]
   [-7.30527416e-02  3.38158421e-02  1.94062362e-03 ...  1.58844311e-02
    -3.60560529e-02 -2.70869173e-02]
   ...
   [-3.88093069e-02  4.11419533e-02 -5.44425994e-02 ...  8.64384137e-03
     4.83653881e-02 -5.83159588e-02]
   [ 6.92776814e-02  5.04099764e-02 -5.26245916e-03 ...  6.96868077e-02
    -2.58204043e-02  2.11811066e-02]
   [ 3.12491599e-02 -6.14487864e-02  8.22513178e-02 ... -6.03312626e-02
     4.47108597e-02  2.25886721e-02]]]


 [[[-3.70265469e-02 -5.39857298e-02 -3.34257632e-02 ... -1.07763432e-01
     1.37725640e-02  6.49428517e-02]
   [ 2.30486551e-03  1.20968011e-03  2.20300928e-02 ... -9.24025252e-02
     2.16172598e-02  2.09806748e-02]
   [ 3.61005962e-02 -4.15492337e-03  5.33640198e-02 ... -5.40308072e-04
    -3.58677879e-02 -2.61142384e-03]
   ...
   [ 4.79302965e-02  8.23272392e-02 -1.18337758e-02 ...  1.36467498e-02
    -2.52736378e-02 -4.00132872e-02]
   [ 5.03075570e-02  1.32327732e-02  5.50990179e-03 ... -6.34133294e-02
     1.32416347e-02 -8.31484213e-05]
   [-5.34470230e-02 -3.21650431e-02  1.82336885e-02 ... -5.21215498e-02
    -1.36567671e-02  5.23435846e-02]]

  [[ 2.24733967e-02 -6.12130985e-02  2.39628297e-03 ... -6.00299947e-02
    -4.87887301e-02  3.31576839e-02]
   [ 5.96848130e-02  9.21685547e-02 -3.68958781e-03 ...  2.03990471e-03
    -8.82634670e-02 -6.24653436e-02]
   [ 4.97412961e-03 -1.66280285e-01 -1.34848403e-02 ... -4.68350202e-02
    -3.75572443e-02  5.62268943e-02]
   ...
   [-1.87697038e-02  5.69663197e-02 -9.62132239e-04 ... -8.38213861e-02
    -4.10316139e-02 -4.68467288e-02]
   [ 1.56571530e-02 -2.01874375e-01 -2.50792410e-02 ... -1.90958157e-02
     7.24644437e-02  6.81030676e-02]
   [-2.09642481e-03  5.86665189e-03  2.98498757e-02 ...  7.34620914e-02
    -1.42855018e-01 -1.51318070e-02]]

  [[-4.56450693e-02  6.43073022e-02 -4.58863936e-02 ...  4.31530364e-02
    -1.12088956e-01 -6.01041242e-02]
   [-3.46828029e-02  9.34582874e-02  3.71371582e-02 ...  2.09961850e-02
    -1.31602705e-01 -1.48317561e-01]
   [ 6.78827390e-02 -4.43770401e-02 -1.20078456e-02 ...  8.02579224e-02
     2.18156110e-02  1.19653707e-02]
   ...
   [-2.55438425e-02  2.92044599e-04 -3.76647972e-02 ... -8.73065740e-02
     4.55977656e-02 -1.48970038e-02]
   [ 8.07697698e-03 -5.14465533e-02 -1.04414016e-01 ...  2.50984691e-02
     3.87231074e-02  2.11485438e-02]
   [-5.74830286e-02 -5.52412681e-02 -4.52610478e-03 ...  6.42922074e-02
    -1.29432440e-01 -1.33066863e-01]]

  [[-4.88421731e-02 -4.67791259e-02  7.87129849e-02 ... -2.32676696e-02
    -3.66953760e-02 -1.48288772e-01]
   [ 4.72264886e-02 -3.13520245e-02 -6.00048341e-04 ...  1.09088877e-02
    -1.54605964e-02 -1.51958555e-01]
   [-2.17606686e-02  6.69808984e-02  4.98834364e-02 ...  4.05178182e-02
    -1.01578310e-01 -1.44678339e-01]
   ...
   [-1.07497291e-03 -6.30773380e-02 -4.49005254e-02 ... -7.81136304e-02
     4.54472639e-02 -4.52043442e-03]
   [-5.58626465e-02  1.25317639e-02 -5.31024262e-02 ...  3.54337879e-02
    -9.74919088e-03 -1.21558584e-01]
   [ 2.50941608e-02 -1.59630641e-01 -1.28016889e-01 ...  1.99309662e-02
    -9.43769664e-02 -1.27922311e-01]]

  [[-8.42399672e-02 -8.49941447e-02  1.14946198e-02 ... -5.36547489e-02
     8.22228789e-02 -9.17368531e-02]
   [ 1.15846276e-01 -1.42490799e-02 -2.10806308e-03 ... -1.60180122e-01
    -7.21693970e-03  3.33483964e-02]
   [-5.61356507e-02  3.19927409e-02  1.16815073e-02 ... -9.43375528e-02
    -1.79857146e-02 -8.26610252e-02]
   ...
   [-1.88648123e-02  7.01504434e-03 -3.86110991e-02 ... -7.49740824e-02
     4.38194051e-02 -7.92086795e-02]
   [-9.23190191e-02  5.32946289e-02  4.43808213e-02 ... -5.69216833e-02
     1.96085966e-04 -8.16982612e-02]
   [-1.44925471e-02 -8.55537355e-02 -5.07248715e-02 ... -2.94159539e-03
     5.47866104e-03  1.88101325e-02]]]


 [[[ 1.33623034e-02 -2.77925637e-02  5.20861633e-02 ...  8.72206129e-03
     1.04296198e-02  6.52338639e-02]
   [-5.74579462e-02  4.83690202e-02  3.94778028e-02 ...  5.11877500e-02
     1.20332716e-02 -1.79262497e-02]
   [-6.14260584e-02  3.00110430e-02 -5.30808866e-02 ... -1.08054094e-02
     2.73168832e-02  2.49295849e-02]
   ...
   [ 5.29015623e-02  8.33114609e-02 -1.79056427e-04 ...  3.10072675e-02
    -7.28101730e-02 -2.02103797e-02]
   [-9.90078598e-03 -4.28442806e-02 -6.17279634e-02 ... -4.99735996e-02
    -1.42867845e-02  4.76209708e-02]
   [-4.96030189e-02  2.73676720e-02  2.80308500e-02 ... -1.85881350e-02
    -1.06509261e-01  5.93918227e-02]]

  [[ 8.39436352e-02 -7.94155002e-02  3.51802856e-02 ... -3.97401080e-02
     5.71223162e-02  4.74849204e-03]
   [-2.78006960e-03 -2.78743915e-02 -1.94670428e-02 ... -3.08731645e-02
     9.18679312e-03  8.29854235e-03]
   [-1.85410883e-02 -2.57406458e-02  7.85156637e-02 ... -1.29748136e-01
     2.71923989e-02  5.03285304e-02]
   ...
   [-2.11373379e-04 -2.51850989e-02  1.35758780e-02 ...  1.75993368e-02
    -6.92702606e-02 -4.77470569e-02]
   [ 3.81860398e-02 -5.26989028e-02  1.78122148e-02 ... -1.14198461e-01
     1.73533484e-02  4.86687906e-02]
   [ 1.52011355e-02 -7.93513209e-02 -1.52409002e-02 ... -9.10453200e-02
    -8.73675495e-02  3.22541893e-02]]

  [[ 5.99855594e-02  1.03920385e-01 -4.07445729e-02 ... -1.59929357e-02
    -4.05537672e-02 -3.43267573e-03]
   [ 5.02609089e-02 -2.63769999e-02  9.20319855e-02 ... -9.84182209e-03
     6.44770414e-02 -1.50214380e-03]
   [-1.50757644e-03 -4.31608967e-02 -1.60520691e-02 ... -2.82057784e-02
    -4.57822308e-02  4.48341295e-03]
   ...
   [ 5.13517782e-02 -5.04123867e-02 -5.97242673e-04 ... -2.27794657e-03
     3.78631130e-02  5.00997808e-03]
   [ 3.63396592e-02 -1.33795645e-02  9.46469256e-04 ...  1.97188072e-02
    -7.53136948e-02  5.90942241e-03]
   [-6.76646903e-02 -7.53084244e-03 -1.10648684e-01 ... -6.71899095e-02
    -1.02872767e-01 -1.07505191e-02]]

  [[-8.38670954e-02  1.51423007e-01  4.02566604e-02 ...  4.26380709e-02
    -1.39988586e-01 -3.92911248e-02]
   [ 8.61785114e-02 -8.82757548e-03 -4.16756943e-02 ... -2.74795201e-02
     8.83810818e-02 -4.55637462e-04]
   [-4.23137173e-02  1.67712756e-02 -7.94929359e-03 ...  1.21897995e-03
    -7.41604418e-02  1.25717847e-02]
   ...
   [ 3.39300372e-02 -2.97183264e-02 -3.84467356e-02 ...  4.52655461e-03
     1.21777132e-02 -5.10260835e-03]
   [-1.12606861e-01  5.26479371e-02  4.94848862e-02 ... -5.04871719e-02
    -3.37344222e-02 -1.28788315e-02]
   [-2.32358053e-02  6.32719472e-02 -1.84551314e-01 ...  5.92926471e-03
    -9.62615982e-02 -1.90742642e-01]]

  [[-5.45700565e-02  3.72609124e-02 -3.68414223e-02 ... -2.57311203e-02
    -1.12484191e-02 -4.61707227e-02]
   [ 9.51293260e-02 -1.29356999e-02 -2.73827906e-03 ... -6.29887218e-04
     7.80301467e-02  5.04048727e-02]
   [-5.95139712e-02  2.76097171e-02  5.09384423e-02 ... -1.14205023e-02
     1.22133335e-02 -1.92954149e-02]
   ...
   [-3.09673827e-02  1.46907996e-02  8.09341967e-02 ...  5.82886189e-02
    -1.92740944e-03  1.55144669e-02]
   [-1.22986481e-01 -1.01259316e-03 -2.64002457e-02 ... -5.62929101e-02
     2.28476953e-02 -4.62595709e-02]
   [ 2.18940079e-02  6.01553880e-02 -8.86807889e-02 ... -6.22878112e-02
    -9.31119174e-03 -8.97010267e-02]]]


 [[[-2.44355388e-02  3.53438593e-02  1.78092886e-02 ...  1.76256970e-02
    -1.88102499e-02 -1.25249820e-02]
   [-5.65191992e-02  3.82228121e-02 -1.74999554e-02 ...  2.77964137e-02
     3.25807184e-02  3.13249305e-02]
   [ 2.16039270e-02 -1.16215788e-01  4.00671735e-02 ...  7.45054185e-02
     3.76826376e-02 -2.05497015e-02]
   ...
   [-3.15216407e-02  3.14082280e-02  5.46806492e-02 ... -2.24682018e-02
    -1.27738491e-01  9.16145369e-02]
   [-2.21349336e-02  3.39900516e-02 -5.97467422e-02 ...  5.25937788e-02
     6.02197759e-02 -2.43651085e-02]
   [-1.01316685e-03  7.20431283e-02  4.66977656e-02 ...  1.01071205e-02
    -5.94563298e-02 -3.30244899e-02]]

  [[ 3.37565728e-02  1.82344988e-02  7.98708275e-02 ... -6.62628189e-02
     5.08695515e-03  2.27939337e-02]
   [-6.40915781e-02  9.83649865e-03  5.24287820e-02 ... -7.25177228e-02
     4.00816742e-03  1.23538569e-01]
   [ 2.65408913e-03  1.10503353e-01  6.10137060e-02 ...  3.94969769e-02
     8.93280059e-02 -7.89049119e-02]
   ...
   [-6.93131313e-02 -6.83795661e-02  4.55641411e-02 ... -8.32433328e-02
    -6.01274520e-02  4.51231636e-02]
   [-3.12958546e-02  1.43261338e-02  5.92954755e-02 ...  1.05907884e-03
     5.32958247e-02 -6.22445978e-02]
   [-2.22547669e-02 -1.91925652e-02 -2.17400156e-02 ...  1.94160659e-02
     2.52683759e-02  4.47999537e-02]]

  [[ 2.30473112e-02  1.10171083e-02  3.07529811e-02 ...  3.44695114e-02
    -2.07182020e-02  9.42180231e-02]
   [-2.58739833e-02 -9.14243460e-02  5.91469966e-02 ...  5.79917952e-02
    -1.21471621e-02  1.15857661e-01]
   [-5.13546765e-02 -1.30218184e-02  9.47019318e-04 ... -4.61313874e-02
     3.03894412e-02  6.48680702e-02]
   ...
   [ 5.08113652e-02 -3.80133428e-02 -7.04272371e-03 ... -4.21913266e-02
    -9.61035490e-02  1.07291780e-01]
   [-1.76400933e-02 -9.29513760e-03 -1.94417071e-02 ...  1.28413960e-02
    -2.12007128e-02  4.04605642e-02]
   [-1.13305431e-02 -1.63458474e-02 -4.98632491e-02 ...  6.87514395e-02
     5.73636079e-03 -2.48827841e-02]]

  [[-2.05684896e-03  4.64803092e-02  9.91377141e-03 ...  4.65206020e-02
    -1.26942759e-02 -8.37209262e-03]
   [ 5.55826128e-02 -1.02286205e-01 -4.66015050e-03 ... -6.58053160e-02
     1.49791669e-02  1.18907064e-01]
   [-5.55514544e-02  6.69801384e-02  2.80667972e-02 ...  4.82020639e-02
     1.96719251e-04  2.52494011e-02]
   ...
   [ 5.08220680e-02 -2.40511391e-02 -4.43529971e-02 ... -1.10688070e-02
    -2.00962685e-02  1.52731803e-03]
   [-7.45553970e-02  4.43119369e-02  5.98761812e-02 ...  9.13034901e-02
     1.31612439e-02  4.66155224e-02]
   [ 9.79255768e-04  2.19121501e-02 -1.14618994e-01 ... -1.31515875e-01
     7.55525157e-02  1.98885496e-03]]

  [[-8.59174579e-02  5.54252490e-02 -1.25170583e-02 ... -8.52192752e-03
     1.07715480e-01 -1.93697549e-02]
   [ 2.62221042e-02 -2.14516222e-02 -2.14265119e-02 ... -1.29485741e-01
     6.06154315e-02  1.04613593e-02]
   [-9.45179164e-02 -1.86840352e-02  7.05929846e-02 ...  7.99262673e-02
     4.47040610e-03 -3.71886417e-02]
   ...
   [-1.42808706e-02  8.07803869e-02  5.92820235e-02 ...  2.04306338e-02
    -1.73147488e-02  5.44464067e-02]
   [-5.42940833e-02  6.29571453e-02  3.63563336e-02 ...  5.36410138e-02
    -4.53344472e-02  1.47659201e-02]
   [-2.30963565e-02  2.40551634e-03  1.74788516e-02 ... -7.39556849e-02
    -2.11761314e-02 -6.74052909e-02]]]]
conv2d_2/bias:0
(64,)
[ 0.00880526  0.01438445  0.02223772 -0.00266197  0.02895589 -0.00653737
  0.01773821  0.04221317  0.02179191  0.01711133  0.03327259  0.00099796
 -0.00865802  0.02240817  0.01326856  0.00547402  0.00288558 -0.00882032
 -0.02437831  0.00775609 -0.00885129  0.01343749 -0.03968316  0.02805027
  0.00121052  0.01166978 -0.01821029 -0.0372724  -0.03504518  0.04823299
  0.01000417  0.0372556  -0.01714565 -0.00922306 -0.01353956  0.01463787
  0.03428202  0.03503742  0.07800929  0.04881258 -0.0010742   0.00155593
  0.01180875 -0.0148208  -0.00504857  0.01247154  0.01733518  0.00511697
  0.00702695  0.03439759  0.00203558 -0.00074462 -0.02108886 -0.00490801
  0.04016999 -0.00316655  0.01544248  0.00182287 -0.00584671 -0.00111142
 -0.00393883  0.04379976 -0.01425349  0.05074948]
conv2d_3/kernel:0
(5, 5, 64, 128)
[[[[ 1.02704175e-01  4.55276519e-02 -4.72893380e-02 ... -2.49625687e-02
    -2.16930415e-02 -2.63909213e-02]
   [-4.72984612e-02  1.35200210e-02  3.26466151e-02 ...  1.17693776e-02
    -2.16532238e-02 -6.22026175e-02]
   [ 1.55327830e-03  1.94901263e-03 -1.13337338e-02 ...  7.97752291e-02
     3.09329480e-02 -4.05449085e-02]
   ...
   [ 1.15236500e-02  3.57311592e-02  4.90591414e-02 ... -2.21986091e-03
    -1.94030516e-02  1.37316179e-04]
   [-9.18454258e-04 -3.44962254e-02  3.06211431e-02 ...  6.51874617e-02
    -2.25519836e-02  4.94634323e-02]
   [ 4.32286747e-02 -8.19382593e-02 -5.78604937e-02 ... -6.98647872e-02
     4.15059179e-02 -8.07534233e-02]]

  [[-2.19698362e-02  4.52913949e-03  4.33448963e-02 ...  3.55461682e-03
    -6.11379482e-02 -4.35393006e-02]
   [ 2.69421339e-02  4.35381718e-02  5.40622622e-02 ...  1.46175688e-02
     3.77082005e-02  3.01294588e-03]
   [ 3.31975259e-02 -8.23313594e-02 -4.34756055e-02 ... -3.50007452e-02
     5.31604923e-02 -1.09117804e-02]
   ...
   [-6.09345846e-02 -9.92015935e-03  3.54342209e-03 ...  6.80633858e-02
     5.30400127e-03 -6.15849793e-02]
   [ 2.64635533e-02 -2.36634482e-02  4.86355126e-02 ...  1.22328043e-01
    -1.67946313e-02  5.49726374e-02]
   [ 5.13363481e-02  2.04070713e-02 -1.42052034e-02 ...  4.27205395e-03
     1.62168052e-02 -6.75168186e-02]]

  [[-2.57398542e-02  3.34027805e-03 -3.10694873e-02 ... -2.10211352e-02
    -2.79362947e-02 -1.44065106e-02]
   [ 5.51612936e-02  1.13389520e-02  4.73410599e-02 ...  5.52962646e-02
     8.66478868e-03  3.07334568e-02]
   [ 4.81625786e-03 -1.22201610e-02 -7.50895068e-02 ... -1.06996737e-01
     1.45222843e-02 -1.47078514e-01]
   ...
   [-1.89238433e-02  1.47096217e-02  3.52967158e-02 ...  7.12037459e-02
    -8.46682396e-03  2.07066294e-02]
   [-2.13326188e-03 -4.31896672e-02  1.77748166e-02 ...  6.82225674e-02
     5.96424192e-03 -9.73038841e-03]
   [ 1.18274298e-02  1.35919424e-02  8.94188583e-02 ...  1.19982427e-02
     4.50167991e-03  1.66146606e-02]]

  [[ 1.74300279e-02  2.20292993e-02 -2.02647261e-02 ... -2.37934245e-03
     1.86850466e-02  3.94850085e-03]
   [-3.35748941e-02  2.77418420e-02 -1.34994201e-02 ...  9.11604427e-03
     6.13576584e-02  1.24550844e-02]
   [ 3.84725146e-02 -8.18954315e-03 -2.18498241e-02 ... -6.61498234e-02
    -1.49183227e-02 -1.12235025e-01]
   ...
   [-9.62346850e-04 -4.40830179e-02 -2.90520547e-05 ...  6.59060702e-02
     4.40448299e-02 -2.81317439e-02]
   [-4.46516313e-02 -3.32610086e-02 -2.28782953e-03 ... -2.55344585e-02
    -1.34257292e-02 -6.79467097e-02]
   [ 5.73313199e-02 -5.98959625e-03  1.27180265e-02 ... -1.55284684e-02
    -4.38305028e-02 -1.32409893e-02]]

  [[ 3.45963822e-03  7.56159564e-03  3.59664857e-02 ... -6.19543018e-03
     1.51730245e-02 -6.98182136e-02]
   [ 6.07372401e-03  2.19136514e-02 -6.41226172e-02 ...  6.31975941e-04
     3.10474206e-02  5.55426478e-02]
   [ 6.25287369e-02 -2.97420267e-02  4.15555127e-02 ...  1.59921367e-02
    -1.30697250e-01 -7.84318987e-03]
   ...
   [-2.39402317e-02 -5.77795915e-02 -7.29206428e-02 ... -5.33540882e-02
     7.08096772e-02 -1.17005706e-01]
   [-1.76087674e-02 -1.00308545e-01 -3.65822054e-02 ... -4.79481593e-02
    -6.88811066e-03 -8.30792114e-02]
   [ 5.41501418e-02  2.93810647e-02  6.74429722e-03 ...  6.99535990e-03
    -3.85378599e-02 -2.96349317e-04]]]


 [[[-1.77468359e-02 -1.87852550e-02 -4.60424349e-02 ...  1.33120101e-02
    -7.35992864e-02 -3.03470977e-02]
   [-5.71162924e-02  2.72923280e-02  4.05751280e-02 ... -9.77915805e-03
    -2.87215691e-03 -5.46573624e-02]
   [-7.73681235e-03  8.47652275e-03  4.85847145e-02 ...  6.28634319e-02
     2.92869546e-02 -2.45334096e-02]
   ...
   [-3.24378163e-02  1.17140345e-03  2.75346451e-02 ... -2.79441644e-02
    -4.50081006e-02 -1.70260668e-02]
   [ 4.92549874e-02  6.00405373e-02 -6.24973467e-03 ... -1.79557297e-02
     5.62628591e-03 -4.20081615e-02]
   [-9.56533402e-02 -1.58294551e-02 -9.08590332e-02 ...  1.13951080e-02
     5.85496724e-02 -2.59732399e-02]]

  [[-4.38953377e-02  9.01476573e-03 -2.55935993e-02 ...  6.55573159e-02
    -2.81077996e-02  8.96347966e-03]
   [-3.99160013e-02  2.28661913e-02  2.77626514e-02 ...  1.62174832e-02
     4.96932790e-02 -9.77396034e-04]
   [ 1.23226712e-03 -2.52414476e-02 -3.91394570e-02 ...  5.50750419e-02
     9.50522870e-02 -1.37664285e-02]
   ...
   [-6.06075823e-02 -6.54118927e-03 -1.48739375e-03 ...  5.13021462e-02
     1.62069891e-02  6.30666316e-02]
   [ 3.54272984e-02  2.74112634e-02  3.00406627e-02 ...  4.02272977e-02
     6.00349717e-03 -1.64215770e-02]
   [-1.20390490e-01 -6.83264881e-02 -6.09846786e-02 ...  4.04602475e-02
    -5.24405986e-02  1.46070095e-02]]

  [[-1.85563061e-02 -4.52141184e-03  2.53992267e-02 ... -3.75356711e-03
    -2.93051917e-02 -6.00245111e-02]
   [ 4.89681959e-02  6.58394396e-02 -6.01303019e-02 ... -1.13750704e-01
     3.55646573e-02 -1.77195948e-02]
   [-1.26743754e-02 -8.98524467e-03 -6.83274493e-02 ... -2.76444145e-02
     5.06665651e-03 -1.37848556e-02]
   ...
   [-3.71499918e-03  8.35773498e-02 -6.34738430e-02 ...  1.27708502e-02
     5.81435859e-02  9.37326904e-03]
   [-6.36303574e-02  1.24337496e-02  6.92098066e-02 ...  1.13372728e-02
    -5.91462255e-02  4.13455479e-02]
   [-6.59194812e-02 -6.23403154e-02 -5.10822609e-02 ... -4.70474958e-02
     1.20043624e-02  2.49195267e-02]]

  [[ 1.79577135e-02  3.97309959e-02  3.46475169e-02 ...  1.13544315e-02
     2.66313870e-02 -8.49886760e-02]
   [-3.11214142e-02 -4.70502228e-02 -5.24293445e-02 ...  2.20183786e-02
    -4.54102774e-05 -1.99035965e-02]
   [-1.04947753e-01 -3.29201519e-02 -5.17281741e-02 ... -8.40229355e-03
    -2.76959967e-02 -2.00389186e-03]
   ...
   [-2.63661239e-02 -9.37580131e-03 -6.23381808e-02 ... -1.21719968e-02
     4.59741913e-02 -5.62162288e-02]
   [-8.91727954e-02  5.37220482e-03  2.38327980e-02 ... -4.76418138e-02
    -3.47145721e-02 -1.80800036e-02]
   [-5.31690679e-02 -1.79793797e-02 -7.95686692e-02 ... -2.74417270e-02
    -1.15445582e-02 -1.92009769e-02]]

  [[-8.50276835e-03  2.14715954e-02 -3.94690176e-03 ...  3.83257717e-02
     4.84075677e-03 -1.72870327e-02]
   [ 3.92010715e-03 -4.53398153e-02  1.30677095e-03 ...  7.80891180e-02
    -3.41880396e-02  3.78487892e-02]
   [-3.97250243e-02  4.45746109e-02 -8.15972462e-02 ...  1.04165645e-02
     2.28030309e-02  1.90405920e-03]
   ...
   [-5.63955270e-02 -2.91343853e-02 -7.33051747e-02 ...  1.43039497e-02
     2.24347524e-02  3.44219729e-02]
   [-2.13589873e-02 -4.37083691e-02 -5.36477864e-02 ... -2.29187608e-02
     4.77940403e-02 -8.53121877e-02]
   [-3.80055830e-02  4.96741198e-02 -1.42329959e-02 ... -3.08287758e-02
    -7.18407631e-02 -2.59443633e-02]]]


 [[[ 1.72252078e-02 -3.85043700e-03 -6.48180535e-03 ...  1.65853277e-02
     6.98205642e-03  3.89702320e-02]
   [-2.21783835e-02  3.30675729e-02  6.24410994e-03 ... -5.47707640e-02
     1.14291403e-02  2.32010819e-02]
   [-2.23980770e-02 -5.85448034e-02 -4.39593233e-02 ... -3.48223262e-02
    -5.63660935e-02  5.36080897e-02]
   ...
   [ 5.47447912e-02  2.49560922e-02 -3.91903296e-02 ... -2.20073690e-03
    -1.81747209e-02  2.18806285e-02]
   [-1.73183307e-02  4.06292174e-03 -1.01946983e-02 ... -3.41331884e-02
    -1.79147627e-02  6.49959669e-02]
   [-8.09707195e-02  1.48364007e-02  3.97908650e-02 ...  1.92446262e-02
    -9.19159502e-02 -2.00948417e-02]]

  [[ 5.93994856e-02 -9.89667699e-03 -2.48264261e-02 ... -3.59893814e-02
     1.50426636e-02  1.65608842e-02]
   [-1.13337468e-02  6.27551377e-02 -1.80235803e-02 ... -7.32373446e-02
     1.90705340e-02  2.66296286e-02]
   [-1.19333863e-02 -4.92728017e-02  2.11980343e-02 ...  3.81700657e-02
     4.45089154e-02  7.81421736e-03]
   ...
   [-1.61678158e-02 -1.87266842e-02  2.47538872e-02 ... -2.77434532e-02
    -3.73536460e-02  3.45957838e-02]
   [-5.47395786e-03 -1.05240149e-02 -4.75539975e-02 ... -1.55799673e-03
    -7.21136779e-02  1.58723686e-02]
   [-1.07434422e-01 -8.37381184e-02 -1.32819572e-02 ...  4.01299633e-02
    -5.44496290e-02  2.84326784e-02]]

  [[-4.91094962e-02 -1.48410806e-02  1.91005456e-05 ... -8.19297805e-02
    -9.83791333e-03  8.39139149e-03]
   [ 1.02104957e-03  2.45782640e-02  5.53651117e-02 ... -2.62413397e-02
    -1.89173296e-02 -4.09593284e-02]
   [-1.66569762e-02 -1.70559306e-02  3.11661586e-02 ...  6.69975802e-02
    -5.29258065e-02 -9.25202947e-03]
   ...
   [-1.12698942e-01 -1.80694833e-02 -1.47460746e-02 ... -9.05528069e-02
    -4.13086936e-02 -4.73918021e-02]
   [-2.82175634e-02  1.66876521e-02  1.35299051e-03 ... -1.10967439e-02
    -1.03309989e-01  2.93736868e-02]
   [-3.30422223e-02 -1.19904857e-02 -6.25846609e-02 ... -2.96038017e-03
    -2.07893401e-02 -1.38510363e-02]]

  [[-1.33498153e-02 -2.71013640e-02  3.01390477e-02 ...  2.35159969e-04
     3.31217870e-02 -3.60842422e-02]
   [-1.87141914e-03 -3.23348194e-02 -3.12662218e-04 ... -8.93410202e-03
     2.83500087e-03  7.33093545e-02]
   [ 3.59559711e-03 -6.42684698e-02 -9.03262794e-02 ...  3.28452922e-02
     2.92058196e-02  3.03905867e-02]
   ...
   [-9.67622846e-02 -1.27375163e-02  2.73564961e-02 ...  2.03829575e-02
    -6.66249020e-04  2.60597356e-02]
   [-1.07211530e-01  3.71189998e-03 -1.62950903e-02 ... -5.57450242e-02
     3.24275941e-02 -1.61158703e-02]
   [-4.60834093e-02  8.88800025e-02  1.97756607e-02 ... -2.05158554e-02
    -1.11111132e-02 -3.72618325e-02]]

  [[ 7.74166435e-02 -1.54713094e-02 -1.75566413e-03 ...  1.17910153e-03
    -4.81530055e-02 -2.17273533e-02]
   [-1.00472771e-01  2.78079715e-02 -2.98295612e-03 ...  2.53148433e-02
    -2.89612561e-02  5.38023002e-02]
   [-4.13591452e-02 -1.60696395e-02 -5.05068600e-02 ...  2.36974023e-02
     1.27808256e-02 -5.21127097e-02]
   ...
   [ 5.77592198e-03  1.32900272e-02  2.40945872e-02 ...  7.04775974e-02
     1.06921876e-02  4.67402637e-02]
   [-1.12889953e-01 -1.53197004e-02 -4.84919408e-03 ... -2.38943542e-03
     4.00067978e-02 -2.88456194e-02]
   [-7.05871284e-02  1.93302948e-02  2.64466852e-02 ... -7.30525553e-02
    -5.38921021e-02  2.28482066e-03]]]


 [[[-9.67621338e-03 -1.37871993e-03  8.22619256e-03 ...  4.98478152e-02
    -3.63515392e-02 -5.40804639e-02]
   [-1.34523287e-02  8.43941793e-03  3.70384976e-02 ... -7.41120130e-02
    -5.21558523e-02 -6.04183301e-02]
   [ 5.94540089e-02  5.26700215e-03 -6.21445291e-02 ... -2.95770466e-02
    -2.49809064e-02  1.27704190e-02]
   ...
   [ 2.22710855e-02 -8.08428228e-03 -4.33959626e-03 ...  1.38141010e-02
    -5.56336977e-02  5.35164618e-05]
   [ 4.62613665e-02  9.25486721e-03 -6.59064651e-02 ...  1.09434724e-02
    -2.19130125e-02 -3.09452266e-02]
   [-1.14751905e-02  7.91031402e-03 -4.51907776e-02 ... -2.30857846e-03
    -4.69239242e-02 -4.05816101e-02]]

  [[ 1.27652707e-02  3.26759554e-02  1.22066690e-02 ...  6.86263852e-03
     4.98461425e-02 -3.74909565e-02]
   [ 1.03888893e-02  7.11989999e-02 -1.92363970e-02 ... -3.46960649e-02
     3.09176184e-02 -7.37844035e-02]
   [-5.70960678e-02  4.80403118e-02 -2.20723022e-02 ... -1.16613053e-03
     5.06631993e-02  2.95796860e-02]
   ...
   [ 3.01021934e-02  2.92923264e-02  1.68146212e-02 ... -7.59124979e-02
    -3.02169528e-02  2.45393552e-02]
   [ 4.25229035e-02  3.17320377e-02 -4.82764561e-03 ... -1.57567952e-02
     5.65264467e-03 -3.98435555e-02]
   [-3.45677733e-02 -4.55981717e-02 -2.48429901e-03 ...  9.39868670e-03
     4.69645262e-02  6.73061190e-03]]

  [[-6.71961084e-02 -3.08692511e-02  8.57488438e-03 ... -3.06344498e-02
     6.82123452e-02 -1.00852661e-02]
   [-1.32866455e-02 -5.57696670e-02  3.62804271e-02 ... -3.05425748e-02
    -5.28916009e-02  7.84704369e-03]
   [ 1.50167504e-02 -7.22251609e-02 -2.67335866e-02 ... -2.22608652e-02
    -2.12145951e-02 -4.18824255e-02]
   ...
   [-3.41930501e-02 -1.15589295e-02  1.04007516e-02 ... -4.34217453e-02
    -2.04660762e-02  1.91304367e-02]
   [ 1.97161362e-02 -2.79687010e-02  2.95247752e-02 ... -1.67085994e-02
     1.53160589e-02 -8.32727831e-03]
   [-8.68396387e-02 -1.74648408e-03 -1.47459405e-02 ... -4.12550718e-02
    -6.60931645e-03 -5.83459111e-03]]

  [[-6.16267323e-02  1.88608412e-02 -5.21784043e-03 ... -2.93265767e-02
    -1.25511605e-02  8.16940330e-03]
   [-3.61508946e-03 -2.95795593e-02 -6.90548196e-02 ...  4.67516258e-02
    -3.25222453e-03  4.35474515e-03]
   [ 4.39019576e-02  2.49162391e-02 -4.03910689e-02 ... -6.74310476e-02
     3.65456566e-02 -6.84123710e-02]
   ...
   [-3.83735113e-02 -2.19628029e-02 -3.35418223e-03 ...  1.46808978e-02
     5.20697571e-02  4.88912873e-02]
   [-1.21583808e-02 -1.86417031e-03  9.09401178e-02 ... -4.95923012e-02
    -1.57960877e-02  1.60388928e-02]
   [-6.58149421e-02  4.89356294e-02  6.75343350e-02 ... -7.92398751e-02
    -2.32633650e-02  1.35267759e-02]]

  [[ 7.30698183e-02 -5.17444946e-02  5.17896414e-02 ...  6.45117601e-03
     6.19292259e-03  2.52583455e-02]
   [-1.77346095e-02 -4.37945053e-02 -1.01455286e-01 ... -3.63757797e-02
    -7.34451413e-02 -1.51756657e-02]
   [ 2.09725332e-02 -3.97388712e-02 -4.54647914e-02 ... -7.58234560e-02
    -2.09916383e-02 -1.03336647e-01]
   ...
   [ 3.89345922e-02 -2.51151044e-02 -6.02090657e-02 ... -4.79749702e-02
    -2.62544435e-02  1.12795224e-03]
   [-2.06993222e-02 -1.64644923e-02  9.71455052e-02 ...  2.86141597e-02
    -1.19918317e-01  1.11149155e-01]
   [-4.15854231e-02  5.11436723e-02  4.78828745e-03 ...  1.78588778e-02
     3.10129952e-02 -1.21945851e-02]]]


 [[[-1.50967753e-02 -3.46455909e-02  1.04784667e-02 ... -1.17894020e-02
    -9.21535597e-04 -6.35958388e-02]
   [-4.72664721e-02  2.67936364e-02 -4.12732512e-02 ... -7.06688091e-02
    -2.69202627e-02 -1.02923214e-02]
   [ 4.67691235e-02  1.77849792e-02 -4.09512082e-03 ...  7.24037737e-03
    -1.01785297e-02 -3.47085036e-02]
   ...
   [-4.42750566e-02 -4.46332991e-03 -3.24199945e-02 ... -4.07231040e-02
    -3.89195159e-02 -7.89597281e-04]
   [-1.83265433e-02  5.78652024e-02 -2.59301830e-02 ...  1.54900309e-02
     4.14665230e-02  5.35654230e-03]
   [-2.20959112e-02 -3.16041484e-02  3.28666158e-02 ...  5.99300780e-04
     5.50620556e-02 -7.89904222e-02]]

  [[ 2.80524530e-02 -5.99756138e-04  2.98523866e-02 ...  6.70274645e-02
     3.82616445e-02 -3.82897779e-02]
   [ 3.21449712e-02 -9.86059476e-03 -4.29417156e-02 ... -3.89792435e-02
    -9.93468799e-03 -4.80031371e-02]
   [-2.26065964e-02 -4.15933579e-02 -2.31947172e-02 ... -5.66093773e-02
    -6.64849393e-03 -6.35246933e-03]
   ...
   [ 2.78935507e-02  2.88947765e-03  8.35397863e-04 ...  4.19657193e-02
    -4.22964208e-02  1.39731411e-02]
   [-9.09454655e-03 -5.12060001e-02 -2.04374511e-02 ... -8.34789425e-02
     1.58215892e-02  7.19573721e-02]
   [ 6.30944641e-03 -8.60848278e-02  4.66433018e-02 ... -1.79817360e-02
    -3.15617360e-02  1.56576335e-02]]

  [[-5.04248142e-02  2.85101347e-02 -1.63041558e-02 ...  2.32364330e-02
     2.34799925e-02 -1.57613046e-02]
   [ 9.70822126e-02 -3.50147486e-02  1.60953440e-02 ... -5.57333119e-02
    -7.83094168e-02 -9.65274423e-02]
   [-2.31079012e-02 -9.35478583e-02  4.49107320e-04 ... -3.91497724e-02
    -2.53776480e-02 -7.24579394e-02]
   ...
   [-1.41097484e-02  2.50912216e-02 -5.06194383e-02 ...  6.06367318e-03
    -2.20603812e-02  8.42430349e-03]
   [-1.05284778e-02 -4.01250646e-02  1.35263382e-02 ... -1.18999807e-02
    -3.21904942e-02  3.32868882e-02]
   [ 1.44018652e-02 -3.14114429e-02 -8.84838402e-02 ... -4.62812968e-02
     3.76058668e-02  8.00885707e-02]]

  [[ 1.03591271e-02  6.43901527e-03  2.91477703e-03 ...  9.81764589e-03
    -3.72531377e-02 -6.25460455e-03]
   [ 1.48062771e-02 -1.68499947e-02  1.65622383e-02 ... -1.09132295e-02
    -7.50468150e-02 -3.58653590e-02]
   [-6.88025355e-02 -5.55831231e-02 -9.74548701e-03 ... -7.12974370e-02
     9.28131957e-03 -2.55112648e-02]
   ...
   [-4.01482638e-03 -2.10593417e-02 -7.10658133e-02 ... -2.43529715e-02
    -2.67442148e-02 -2.92544831e-02]
   [-6.91123605e-02 -3.57989110e-02 -6.95469324e-03 ... -7.13008456e-04
     2.40823589e-02  3.72309722e-02]
   [-3.43957953e-02 -1.63616557e-02 -1.38537521e-02 ... -5.08363172e-02
     8.54804665e-02  3.79083082e-02]]

  [[ 4.53913100e-02 -1.16851684e-02 -4.06207591e-02 ...  2.40526046e-03
    -3.97487357e-02  2.69761533e-02]
   [ 1.59473177e-02 -4.09104936e-02  2.66346801e-02 ...  2.81724613e-02
    -6.72175596e-03 -8.91412348e-02]
   [-6.52966797e-02 -1.86372902e-02  1.52148083e-02 ...  5.95378987e-02
     5.15288636e-02 -1.63135156e-02]
   ...
   [-4.35028598e-03 -1.69467572e-02 -6.85205907e-02 ... -8.67550820e-02
     2.89401039e-02  1.05176093e-02]
   [-2.08637444e-03 -1.03836879e-02 -5.34453578e-02 ...  3.19007225e-03
     1.21547002e-02 -2.58547477e-02]
   [-5.84553741e-02  4.73411642e-02  2.41802763e-02 ...  3.69761996e-02
     4.69699949e-02 -8.43298063e-02]]]]
conv2d_3/bias:0
(128,)
[ 0.00232635  0.00051385  0.00521842  0.00382812 -0.00856272  0.00450784
 -0.00038841  0.00977728  0.00996279  0.00064663  0.00887993  0.00770323
  0.00434443  0.02330163  0.0293537   0.00170542  0.00837033 -0.01460456
  0.02832456 -0.01389344 -0.0039542   0.01570322  0.02440041  0.00346751
  0.02461408  0.0141664  -0.00549068  0.04124352  0.01698817  0.04438537
 -0.01221155  0.00716454  0.02097269 -0.0012148  -0.00235259  0.00514602
  0.00086709 -0.01463496 -0.01082567  0.03138535  0.00792132 -0.00089134
  0.02347821 -0.00889682 -0.01798345 -0.00938281 -0.00047142  0.00536623
 -0.0005927   0.01871302  0.02125476  0.01982634  0.00587397  0.00891275
  0.00170234  0.00842446  0.02900076  0.01107445  0.01497888  0.0163592
  0.01142272  0.01199863  0.01919934  0.00750979 -0.00105902 -0.00844665
 -0.00122891  0.01957839  0.01153999  0.00322758 -0.00752142  0.0081499
  0.0050786   0.00744661 -0.02271686  0.01795852  0.00730359  0.01758283
 -0.00063789  0.01295598  0.01280226  0.02514197 -0.01049235  0.00850693
  0.01849278  0.01102464  0.02001073  0.00311955 -0.01269586  0.0226917
 -0.01672953 -0.00781397  0.01402408 -0.01075391  0.00479609 -0.00312275
 -0.00941641  0.02272431  0.0264771   0.01722989 -0.01275029  0.01429498
  0.01445601  0.01569887  0.02305294  0.00484489  0.02673864  0.02011891
  0.01086307  0.00680213  0.00347724  0.00792929  0.01367197 -0.01560163
  0.0031476   0.01899447  0.00224567  0.01275674  0.01765274  0.01220293
  0.01332118  0.004263    0.00197923 -0.00049164  0.00775348  0.00946593
  0.00851456  0.04281709]
dense/kernel:0
(1152, 128)
[[ 0.01006981 -0.07374858  0.01807436 ... -0.02378161 -0.04873106
  -0.02747251]
 [ 0.04116436  0.02580499 -0.01654063 ... -0.05567661 -0.02271379
  -0.02843289]
 [ 0.00458606 -0.0723791  -0.06916156 ... -0.00852167 -0.06928481
   0.00414019]
 ...
 [-0.10280195  0.01396207  0.02067402 ...  0.0118866  -0.06923812
  -0.03111096]
 [-0.00147783 -0.00523307 -0.06889073 ...  0.01324274  0.02708079
   0.0320793 ]
 [-0.01800485  0.04097021  0.00843032 ...  0.05595451  0.05138595
  -0.03183013]]
dense/bias:0
(128,)
[ 4.79186838e-03 -4.70105670e-02  3.09411585e-02  4.97387722e-03
  1.07581681e-02  1.06308460e-02  3.14416699e-02  1.22330785e-02
  3.12415529e-02  7.27939559e-03  1.35760044e-03 -1.28004355e-02
  1.40997274e-02  1.46313850e-02 -5.19111799e-03  4.35929894e-02
  2.24581128e-03  1.41778653e-02  5.14341053e-03 -6.65224995e-03
  7.65599124e-03  2.05855779e-02  1.37799447e-02  5.14316633e-02
 -9.72665614e-04  2.12195981e-02  1.17816580e-02 -5.12742670e-03
 -1.67967621e-02 -1.01723392e-02  1.44970324e-03  2.04035267e-02
 -1.79260504e-02  1.72173977e-02  7.01256189e-03  4.13870476e-02
  8.17117572e-04 -1.87561437e-02  2.19626725e-02  2.61076745e-02
  1.42561905e-02 -1.68558769e-02 -1.67643633e-02  2.80021094e-02
 -5.09857573e-03  6.00049784e-03  2.42453767e-03  2.85126680e-05
  6.20271219e-03  1.39205130e-02  1.80936176e-02 -1.18815415e-02
  4.79751937e-02 -6.26033684e-03  3.34890820e-02  2.70288475e-02
  6.26934087e-03 -1.68254301e-02 -4.10539214e-04  3.02482527e-02
 -5.77553362e-03  1.36403814e-02 -1.40979355e-02  5.65160206e-03
 -1.33321993e-02  3.21241245e-02  2.64600459e-02  1.56177832e-02
 -4.01787870e-02  2.20483635e-02  1.14625879e-02  1.27540529e-02
 -1.41896093e-02 -6.67993492e-03  5.08673489e-03 -3.39609571e-02
  3.79968546e-02  1.65179130e-02  8.60309415e-03  1.73908146e-03
  2.05446593e-02  1.14089353e-02  1.27144381e-02  1.80307776e-02
 -8.57828360e-04  8.96967854e-03 -7.12619303e-03  4.53080423e-03
  6.93202950e-03  2.38865614e-02 -8.52525420e-03  4.00794297e-03
 -1.05762910e-02 -1.43017787e-02  1.74704064e-02  3.24654914e-02
 -1.47507535e-02  2.83804405e-02  3.99306864e-02 -3.62664275e-02
 -8.97412375e-03  5.64535260e-02  2.27307845e-02  3.13706547e-02
  1.63375605e-02  2.19574478e-02  2.86548994e-02 -7.15679582e-03
  1.15211923e-02 -8.17389414e-03  1.34160118e-02 -2.06956510e-02
  1.48156350e-02  7.12502375e-03  3.66946273e-02 -1.27457660e-02
 -6.00775052e-03  5.66099817e-03  3.11444681e-02  3.34195606e-02
 -1.19579835e-02  2.38717850e-02 -7.95457233e-03  1.56694520e-02
  8.94398894e-03 -3.91260255e-03 -2.28355993e-02  5.60099538e-03]
dense_1/kernel:0
(128, 10)
[[-0.1693752  -0.24957915 -0.03537197 ... -0.07224568  0.1412973
  -0.01077533]
 [-0.09478601 -0.11623985  0.09871735 ... -0.10338756  0.23324196
   0.05528582]
 [ 0.05560029  0.04312648 -0.11284847 ... -0.24638814  0.18552068
  -0.12388173]
 ...
 [-0.0907924   0.11729247  0.14514281 ...  0.05807621  0.01849386
  -0.21871881]
 [-0.04247796 -0.17707562 -0.02496462 ... -0.09430552  0.01556862
  -0.09402291]
 [-0.070197   -0.11299954 -0.13202612 ...  0.15655658 -0.08466104
   0.17389941]]
dense_1/bias:0
(10,)
[-0.00665363  0.03801344 -0.00551715  0.00713576 -0.0298881   0.01588115
 -0.04126285 -0.00703145  0.01810588  0.00180051]
