conv2d/kernel:0
(5, 5, 1, 16)
[[[[ 0.02203287 -0.00235215 -0.09999726 -0.12045944  0.02856298
    -0.01340237 -0.03034052 -0.00127331 -0.05198132  0.05382477
     0.07389032  0.05314673  0.17459652 -0.0631893   0.08987921
    -0.05828861]]

  [[ 0.08530588 -0.12603675 -0.0323583   0.02750819  0.14136687
    -0.08609364 -0.06082523 -0.02809717  0.01725144  0.07891411
     0.07307748  0.17413487  0.12083587  0.06955261  0.02741184
    -0.22843266]]

  [[ 0.08686226 -0.09302592  0.04581027  0.00976588  0.1309942
     0.08103759 -0.09383903 -0.04986239 -0.0273894   0.15810421
     0.08336328  0.02636615 -0.02272937 -0.08922192 -0.16222216
    -0.09631288]]

  [[-0.15381168 -0.0063643   0.09061176  0.08585076  0.08685248
     0.04894134 -0.06789456  0.06045803 -0.00973765  0.14337307
    -0.06060598 -0.10840991  0.11726328 -0.16916986 -0.00373409
    -0.10704888]]

  [[-0.04911386  0.11403387 -0.06995999  0.14953028  0.12537219
     0.07652248  0.05350848  0.09392199 -0.1933766   0.04348982
     0.04773122 -0.17278965  0.04666829 -0.17857245 -0.02752741
    -0.0221161 ]]]


 [[[-0.0432123   0.03221725  0.17036022 -0.01747436 -0.05965231
    -0.09908431 -0.03917948  0.03943421  0.07392042 -0.22279383
    -0.07878609 -0.09260966 -0.05849281  0.03972314  0.04364025
     0.05751869]]

  [[ 0.0402366   0.04970839  0.03947556  0.08031295  0.07477839
    -0.05556269 -0.18014534 -0.10310105  0.02657452  0.06535718
     0.11594791  0.0375741   0.13878721 -0.19517674  0.02714592
    -0.16139182]]

  [[ 0.01164147 -0.27898234  0.14535736 -0.06480921 -0.0258211
     0.00867621 -0.17124403 -0.07969393  0.09716571 -0.01085244
    -0.07848573 -0.01685566  0.06411651 -0.14523534 -0.18336925
    -0.09810169]]

  [[-0.19691688 -0.17068148  0.17525552  0.14081219  0.13833046
     0.0741711  -0.03937994 -0.03402758  0.0235169   0.03849618
     0.07029454  0.06559274  0.00875133 -0.14373738 -0.07919353
    -0.12901515]]

  [[ 0.04272983 -0.14104138  0.21123488  0.01621238  0.06648564
     0.10498008  0.12770398  0.13499075  0.10937221 -0.15067358
    -0.13705191  0.04153092 -0.12511429  0.00832947  0.07267544
    -0.1542526 ]]]


 [[[ 0.09863077  0.07104238 -0.01922766  0.09907226 -0.0523606
    -0.16298704 -0.07449163 -0.1681898   0.00482199 -0.28109714
     0.07428134 -0.20927991 -0.09982876  0.03055695 -0.15835427
     0.20327508]]

  [[ 0.02614895  0.06411909  0.02342167  0.00339565 -0.13126737
    -0.02671678 -0.15654495 -0.09768859  0.13906945 -0.30864626
     0.10324817  0.03014745  0.11588088 -0.17356195 -0.19586569
    -0.03206145]]

  [[-0.08110357 -0.14140086 -0.04386054  0.1460589   0.02521431
     0.06423342 -0.09731442 -0.1161351   0.06242843 -0.19054821
     0.13779482  0.13385929  0.01683304 -0.14132114  0.06230679
     0.11046089]]

  [[-0.12042613 -0.08428762  0.04771584  0.03363628 -0.04952685
     0.12840964  0.01194775  0.04829865  0.20385012 -0.3082556
     0.03123995  0.15178792  0.03506441  0.0111369   0.18440355
     0.00431534]]

  [[ 0.11766431 -0.09155475  0.14096406  0.08662461 -0.07795741
    -0.07504194  0.12388691  0.09158174  0.14010923 -0.19622366
    -0.24545826  0.0049006  -0.09781692  0.1315678   0.14290747
     0.13814181]]]


 [[[ 0.11110226 -0.0513771  -0.03290998 -0.00350909 -0.14933665
    -0.10704594 -0.12227313 -0.01508201 -0.06920557  0.02911856
    -0.03683087  0.083731   -0.14094518 -0.00642497  0.04037322
     0.18825519]]

  [[ 0.14236382  0.09554056  0.03772743  0.03085879 -0.21931532
     0.02841837  0.0444917  -0.09227674  0.00352706 -0.15902676
     0.04331461  0.1520014   0.03250143 -0.2134284   0.09581887
     0.13274752]]

  [[ 0.04890843  0.1268267  -0.08223914  0.10001387 -0.27138916
     0.06755124 -0.13270853 -0.06633723  0.04032673 -0.2331857
     0.13369574  0.02680553  0.01339584 -0.01687842  0.16492262
     0.18720524]]

  [[-0.09102579  0.0463939  -0.15304343 -0.15969394 -0.24312256
     0.05436534  0.03683129 -0.02794578 -0.04797142 -0.11228308
    -0.08471386 -0.10812693  0.09428737  0.06828095 -0.0197718
    -0.00307199]]

  [[ 0.01815241 -0.01042818 -0.14523545  0.00793097 -0.11129752
     0.04988949  0.11995358  0.14396153  0.03618532  0.03446875
     0.01580182  0.08360942 -0.1888287   0.05958147 -0.10308141
     0.0325146 ]]]


 [[[ 0.02592398  0.1378167  -0.12451708 -0.02780971 -0.02208955
     0.02771145 -0.0554131   0.04285901 -0.15125331 -0.03551104
    -0.02782994 -0.03216572  0.01424659 -0.08161118  0.10793393
    -0.02456282]]

  [[ 0.05039928  0.02719526  0.02431258 -0.11864186  0.04969276
     0.01816627 -0.10208536 -0.01552552 -0.1911867  -0.03179849
     0.06373574  0.09650888 -0.12152123 -0.1967402   0.0701123
     0.06130556]]

  [[ 0.02258531  0.16919857 -0.18522252 -0.14374606 -0.08386262
     0.10134229 -0.05864421  0.1121516  -0.20435795  0.16981755
     0.10928612 -0.1368592  -0.00558495  0.15574048 -0.04224623
     0.01323777]]

  [[-0.09453725  0.16094053 -0.16191646 -0.13165966  0.05549737
    -0.0828188   0.11693855  0.10612439 -0.16747463  0.12086646
    -0.14641716 -0.02492741 -0.05726952  0.07518746 -0.02608972
    -0.01602473]]

  [[-0.03428004  0.10509893  0.01769377 -0.19711587  0.0012133
     0.04515684  0.06603462  0.03088208 -0.01303007  0.2055054
    -0.12051523 -0.1359107  -0.04049018  0.13609514 -0.06519125
     0.00587762]]]]
conv2d/bias:0
(16,)
[-0.02701854 -0.02024091  0.00542856  0.00501987  0.01172626 -0.07671838
 -0.00860851 -0.06787046 -0.00116533  0.00289547 -0.05459074  0.00100495
 -0.00717189  0.01436654 -0.08424733 -0.00421398]
conv2d_1/kernel:0
(5, 5, 16, 32)
[[[[-3.84069756e-02 -1.16658229e-02 -1.64379296e-03 ...  8.63358453e-02
     4.83245738e-02  9.12570506e-02]
   [-7.01782107e-02  3.29355896e-02 -5.70622943e-02 ...  4.92942408e-02
     4.59848866e-02  2.26485897e-02]
   [-4.81148139e-02 -5.58865927e-02 -6.52558124e-03 ... -3.08202207e-02
    -7.21241981e-02  6.52103825e-03]
   ...
   [ 8.74124095e-03  2.45366897e-02  5.90270944e-02 ...  2.10440513e-02
     5.93656860e-02 -1.47279337e-01]
   [ 2.41894331e-02 -3.30024324e-02  8.58602822e-02 ...  3.61155048e-02
    -1.50603121e-02  1.42503530e-02]
   [-4.88606542e-02  4.66805622e-02 -1.24725178e-01 ...  1.17195465e-01
     4.37862463e-02 -4.29933779e-02]]

  [[-1.48981735e-02 -9.54958610e-03  7.72575811e-02 ...  4.57256585e-02
     7.12965727e-02  7.45455548e-02]
   [ 1.48304375e-02  1.50105422e-02 -8.06147456e-02 ...  9.44428891e-02
     1.02045529e-01  7.08683282e-02]
   [-6.64997008e-03  8.64556711e-03  7.43404627e-02 ... -7.27432370e-02
    -7.05989152e-02 -1.05751857e-01]
   ...
   [-4.45505977e-03 -1.37392385e-02 -2.76441965e-03 ...  3.92213650e-02
    -5.89992590e-02 -2.59201583e-02]
   [ 6.57160431e-02 -4.47019674e-02  8.95890035e-03 ... -1.56975575e-02
    -4.88969870e-02 -2.09678896e-02]
   [-7.53241405e-02 -5.65335453e-02 -9.22581553e-02 ... -2.47511771e-02
     1.21388070e-01  4.20289449e-02]]

  [[-4.17265967e-02 -5.89590706e-02  5.05423918e-02 ...  6.87560067e-03
     2.90451515e-02  5.38226366e-02]
   [-2.29517631e-02  8.50083400e-03 -7.69567862e-02 ...  9.23675597e-02
     5.05320840e-02  3.58934142e-02]
   [ 1.50650535e-02 -1.36482558e-05  1.38901463e-02 ... -1.64794270e-03
    -9.91757773e-03 -3.92347062e-03]
   ...
   [ 5.63592799e-02 -3.95307168e-02  3.63901146e-02 ...  7.82579258e-02
    -7.05982968e-02  3.20996344e-02]
   [ 3.57046537e-02 -7.44637996e-02 -7.97627643e-02 ...  9.38895047e-02
    -1.18551195e-01  1.10753424e-01]
   [ 8.14485466e-05  8.06097314e-02 -6.74427822e-02 ...  2.99696270e-02
     6.03944287e-02  2.40845568e-02]]

  [[-3.60929891e-02 -1.61287636e-02  4.79770824e-02 ...  4.38294187e-03
    -1.30315006e-01  1.84724312e-02]
   [ 1.12125156e-02  1.01429805e-01  1.09975347e-02 ... -4.89299223e-02
    -1.38124749e-01 -5.85320517e-02]
   [-5.57672493e-02 -5.25018424e-02 -2.21086293e-02 ...  1.11324899e-02
    -4.44456898e-02 -2.38703564e-02]
   ...
   [-4.90537379e-03 -9.02839378e-02  7.90766850e-02 ... -4.26408462e-02
     3.78802009e-02  8.94169062e-02]
   [-1.76592041e-02 -6.44453689e-02 -1.12866778e-02 ...  6.22786768e-02
    -7.08258525e-02  1.06347417e-02]
   [-1.01745084e-01  3.52093987e-02  3.05502452e-02 ...  4.29385006e-02
    -8.12959224e-02 -3.41757238e-02]]

  [[ 5.66640571e-02 -1.53820694e-03  2.02991255e-03 ...  5.17478064e-02
     4.06242460e-02  3.84067744e-02]
   [-3.99464509e-03  9.68617424e-02  5.45289144e-02 ... -1.31394994e-02
    -5.11534363e-02  8.73600915e-02]
   [-6.52563348e-02 -5.59955463e-02 -2.28529926e-02 ... -9.68238860e-02
    -2.47232746e-02  4.71837893e-02]
   ...
   [ 3.35365813e-03  2.45573241e-02  4.21419032e-02 ... -6.76002167e-03
     3.26836924e-03  7.06660002e-02]
   [ 2.29589213e-02 -1.68363110e-03  3.76374982e-02 ...  2.09320895e-03
    -1.28262639e-02  9.30695310e-02]
   [-4.13899356e-03  4.99621443e-02 -2.16014870e-03 ... -7.32585788e-03
    -6.62918910e-02 -1.94258075e-02]]]


 [[[ 5.18648028e-02  4.67136540e-02  6.74084798e-02 ...  2.50179544e-02
    -2.36977655e-02  7.92984739e-02]
   [ 7.52193034e-02  7.87961259e-02 -1.30188828e-02 ...  6.66650757e-02
     1.20198093e-02  1.28548332e-02]
   [-5.01289703e-02  1.92204174e-02  2.50716098e-02 ... -3.85479070e-02
    -3.46807688e-02  4.52582613e-02]
   ...
   [-7.57488050e-03  5.35831437e-04  5.84656298e-02 ...  1.14830814e-01
     6.19738474e-02 -1.68907806e-01]
   [ 7.73926675e-02  1.01067461e-02  3.96060906e-02 ...  3.62679958e-02
     1.39256846e-02  8.42562467e-02]
   [ 6.70605302e-02  3.68085615e-02 -8.23580623e-02 ...  5.22651337e-02
    -1.35108503e-02  1.35125564e-02]]

  [[ 4.77388799e-02  3.10484860e-02  5.72861284e-02 ...  3.97104360e-02
     1.02669448e-01 -2.85787173e-02]
   [ 1.10468723e-01 -2.56992616e-02 -8.77988786e-02 ...  4.86631878e-02
     2.19384413e-02  1.52373895e-01]
   [-9.20695066e-02  7.00433701e-02 -5.23969457e-02 ...  4.11268733e-02
    -1.55889327e-02 -9.94590204e-03]
   ...
   [-3.42797562e-02 -8.62353891e-02 -4.51276414e-02 ...  8.46776180e-03
     1.35894697e-02 -6.40030056e-02]
   [-2.34421585e-02  2.39632875e-02 -1.12181567e-02 ...  1.71380378e-02
    -8.03636909e-02  1.07536703e-01]
   [-3.16796899e-02  7.91825578e-02 -1.17280021e-01 ...  1.12888224e-01
     5.86023666e-02  1.14662573e-01]]

  [[ 1.02067351e-01 -5.64880632e-02 -1.81117952e-02 ... -6.87707588e-02
    -3.67139876e-02  8.45535006e-03]
   [-3.39097716e-02  5.01039326e-02 -7.07147047e-02 ... -2.92398948e-02
     8.04637093e-03  1.03643388e-02]
   [-6.18076064e-02 -3.62572670e-02  2.25632098e-02 ...  2.27064863e-02
    -4.69092056e-02  5.30380430e-03]
   ...
   [ 2.00750344e-02  5.52828331e-03 -6.03613593e-02 ... -1.45485029e-01
    -3.90585139e-02 -4.79803532e-02]
   [ 3.63553688e-02 -6.05350807e-02  1.80180427e-02 ...  2.93946662e-03
    -7.84901530e-02  2.40259469e-02]
   [ 4.77342047e-02 -1.83047894e-02 -2.75970809e-02 ... -8.92914686e-05
    -2.11444255e-02  1.00402636e-02]]

  [[ 6.68525025e-02  6.02326989e-02 -4.14473377e-02 ... -9.55739617e-02
    -5.96056469e-02  3.59835699e-02]
   [ 3.98686081e-02  5.94568439e-02 -8.40801522e-02 ... -1.61472797e-01
    -8.88458118e-02 -1.82161368e-02]
   [-6.28361106e-02 -8.98515508e-02 -4.76940572e-02 ... -7.61831254e-02
    -1.11885317e-01 -8.29089712e-03]
   ...
   [-1.59865953e-02  2.93074921e-02  1.96662806e-02 ... -1.01163037e-01
     1.11679668e-02 -1.83531880e-01]
   [ 5.63743263e-02 -1.09270797e-03  4.31854650e-02 ... -1.84773898e-03
    -7.22247809e-02 -6.50039613e-02]
   [-1.28631582e-02  2.59291511e-02 -7.68628195e-02 ...  2.31584767e-03
    -1.17153987e-01  1.12723093e-02]]

  [[-4.47586142e-02  4.69312929e-02  9.04596969e-02 ...  3.82227171e-03
     6.21161573e-02 -1.03386015e-01]
   [ 1.14177307e-03 -7.68245151e-03 -2.32456606e-02 ... -1.58469617e-01
    -9.02028829e-02 -1.39960617e-01]
   [-5.38085438e-02  4.19459939e-02 -6.18640613e-03 ...  4.13102135e-02
    -3.60555574e-03  7.63798179e-03]
   ...
   [-4.27279202e-03  5.28044961e-02  1.13808783e-02 ... -2.87825745e-02
    -4.49005403e-02 -6.03029281e-02]
   [-1.54070172e-03  1.03470892e-01 -8.29632336e-04 ... -6.46423027e-02
    -6.61531314e-02 -1.24246269e-01]
   [ 2.92445309e-02  2.25942396e-03  3.04031074e-02 ... -9.45934281e-02
    -1.13835901e-01 -7.70529807e-02]]]


 [[[ 8.67970474e-03 -3.51125076e-02  4.29982133e-02 ... -4.22609225e-02
     6.50790036e-02  3.23892683e-02]
   [-5.13227470e-02  3.10928822e-02 -1.17025658e-01 ... -1.56170592e-01
    -1.97688892e-01  1.94087438e-03]
   [ 1.15130074e-01  1.65401939e-02  7.74468258e-02 ...  6.69345409e-02
     5.35420775e-02  5.20697199e-02]
   ...
   [-4.01164480e-02 -8.68512616e-02 -7.07408646e-03 ... -1.45013332e-02
    -1.76375359e-02 -1.59668326e-01]
   [-3.67288589e-02 -2.10024472e-02  5.81762008e-02 ... -7.31015299e-03
     7.75595978e-02 -1.29625071e-02]
   [-3.71595174e-02  3.18435133e-02 -1.11401416e-01 ...  1.09290080e-02
    -1.03987135e-01  8.55903029e-02]]

  [[-8.01361501e-02 -2.26764530e-02  1.58536583e-02 ... -7.09336437e-03
    -8.07843078e-03 -4.10505384e-02]
   [-2.29599904e-02  9.85767469e-02 -1.90623105e-01 ... -1.88937500e-01
    -4.74465713e-02 -1.24522626e-01]
   [ 4.69823070e-02 -5.31888381e-02  2.49616876e-02 ...  5.87410852e-02
    -8.38661045e-02  1.58700533e-02]
   ...
   [-6.01918809e-02  1.59991141e-02 -1.13112763e-01 ... -7.11003542e-02
     1.12443343e-02 -1.39682874e-01]
   [ 1.34084215e-02  6.71451390e-02 -5.71414381e-02 ... -1.22609951e-01
    -1.54463351e-01 -7.75005817e-02]
   [ 1.07930087e-01  3.28971297e-02 -1.63374737e-01 ... -1.19348682e-01
    -8.85070562e-02 -3.75096947e-02]]

  [[-5.73327169e-02 -5.47987260e-02  5.67376539e-02 ... -9.61975828e-02
    -7.12450966e-02  9.57360212e-03]
   [ 3.64025980e-02 -3.24754696e-03 -1.92603827e-01 ... -1.71525165e-01
    -2.32427400e-02  4.78147268e-02]
   [ 7.66048506e-02 -6.28705323e-02  7.34046381e-03 ... -2.14141626e-02
    -1.23671107e-01 -3.25414091e-02]
   ...
   [-9.91258174e-02  5.68913892e-02 -4.18950543e-02 ...  9.33321193e-03
    -4.86526825e-02 -2.27041245e-02]
   [ 1.87161248e-02  8.09121877e-02 -3.01022106e-03 ... -1.55015504e-02
    -3.24941054e-02 -1.15200058e-01]
   [ 4.11960632e-02  9.75911170e-02 -1.83353409e-01 ... -1.93068787e-01
    -5.20082228e-02  6.16488680e-02]]

  [[ 3.28864120e-02  1.64121818e-02 -1.99326947e-02 ... -3.99913341e-02
    -7.59886056e-02 -3.39255035e-02]
   [ 6.68657348e-02 -3.10382363e-03 -1.65718496e-01 ... -2.78552622e-01
    -1.93085950e-02  6.73849583e-02]
   [ 8.41874182e-02 -5.02469055e-02  2.18671504e-02 ...  3.30245048e-02
     2.18020938e-02 -7.85065815e-02]
   ...
   [-8.94120932e-02  8.81934613e-02 -2.44058836e-02 ... -9.41349640e-02
     6.53347652e-03  3.37393698e-03]
   [ 7.92924464e-02  1.68131515e-02 -5.49719855e-02 ...  3.41782868e-02
     3.33073586e-02 -8.93964842e-02]
   [ 9.73984525e-02  8.28071609e-02 -1.68873936e-01 ... -2.07816467e-01
    -2.91158482e-02 -2.16227714e-02]]

  [[ 5.50708473e-02  7.32987598e-02  5.80958016e-02 ... -2.86987163e-02
    -1.44411884e-02 -8.57515633e-02]
   [ 2.63650399e-02 -1.05108172e-01 -1.87845845e-02 ... -2.59906054e-01
    -3.29041928e-02  7.91977048e-02]
   [ 2.22191736e-02  1.77716035e-02  3.98666188e-02 ... -3.42430733e-02
    -3.22666653e-02 -1.35115162e-01]
   ...
   [-1.36653632e-01 -4.11191992e-02 -4.45872732e-02 ... -6.78604320e-02
    -4.64525856e-02  4.57329080e-02]
   [ 1.78190637e-02 -5.76671958e-02 -1.13663003e-02 ... -6.22161776e-02
    -8.37445855e-02 -7.16507435e-02]
   [-5.01278602e-02 -8.52422491e-02 -4.44066525e-02 ... -1.64877370e-01
    -6.43761232e-02  2.26742588e-02]]]


 [[[-6.06227443e-02  4.37028222e-02 -1.29418829e-02 ... -1.05703123e-01
    -2.63283998e-02 -1.02777891e-02]
   [-3.82633158e-03 -4.07115631e-02 -7.93265328e-02 ... -1.00388326e-01
    -5.67689911e-02 -4.64625284e-02]
   [-2.12478284e-02 -6.61649182e-02 -9.35320742e-03 ...  3.16185094e-02
    -1.07739512e-02  2.27465238e-02]
   ...
   [-6.62319064e-02  1.73593372e-01 -3.97523642e-02 ...  6.40744418e-02
    -1.97760500e-02 -6.20454084e-03]
   [-4.75921035e-02  6.81031495e-04 -8.99642408e-02 ... -6.52540326e-02
    -7.90233761e-02 -1.10597797e-01]
   [-1.29481927e-01 -5.01881316e-02 -9.98196378e-02 ... -1.30605534e-01
    -9.59091932e-02 -5.60287237e-02]]

  [[-5.21447808e-02 -5.78834116e-02 -1.01888357e-02 ... -1.32820815e-01
    -2.42508762e-02 -3.56997666e-03]
   [-7.49000460e-02  4.05023694e-02 -9.78566185e-02 ... -8.64693895e-02
    -9.43607083e-05  1.05724949e-02]
   [ 8.74043163e-03 -3.06864977e-02 -8.11228678e-02 ... -6.96502700e-02
    -1.07629158e-01 -1.21450722e-02]
   ...
   [-1.23383954e-01  2.81636901e-02 -4.12008762e-02 ...  8.48730132e-02
     1.04310192e-01 -1.07274018e-03]
   [-5.65965846e-02  6.48723617e-02  2.70342659e-02 ... -1.78677309e-02
     4.68103122e-03 -2.93978006e-02]
   [-2.17401497e-02 -1.68439671e-02 -1.66234493e-01 ... -8.83626714e-02
    -4.44464311e-02 -5.16871698e-02]]

  [[-1.70023274e-02 -3.48352864e-02 -3.50215510e-02 ... -4.18291055e-02
    -1.58434361e-02 -5.75037524e-02]
   [-8.79338682e-02 -1.28114209e-01 -3.11362538e-02 ... -2.54068095e-02
     3.51299979e-02 -8.37741345e-02]
   [-2.84610670e-02  1.16824424e-02  3.63340266e-02 ... -3.25312875e-02
     6.00227946e-03 -3.20817456e-02]
   ...
   [-4.81280312e-02  8.35406631e-02  7.57824571e-04 ... -1.47641525e-02
     1.12797376e-02  1.00987740e-01]
   [ 4.44631539e-02  5.18658198e-02 -3.22061405e-02 ...  6.36502877e-02
     5.97724244e-02 -2.60946359e-02]
   [-1.58219989e-02  1.15266563e-02 -1.45882353e-01 ... -1.02727339e-01
    -2.82088085e-03 -1.18922971e-01]]

  [[-5.19168489e-02 -5.59310578e-02 -5.35852574e-02 ... -2.27667391e-02
    -2.15101172e-03  6.55905455e-02]
   [-9.59444121e-02 -1.72188744e-01 -1.79375514e-01 ... -1.69828698e-01
    -1.22921972e-03 -3.38197872e-02]
   [ 2.14114692e-02  3.49306827e-03  5.17597981e-03 ... -3.77033353e-02
     8.02338403e-03 -7.99654797e-02]
   ...
   [-6.10549599e-02 -4.73501831e-02 -4.39952463e-02 ... -3.87980379e-02
    -6.25114664e-02  7.04824179e-02]
   [ 4.52514589e-02 -2.06375518e-03  2.82111089e-03 ... -2.04745564e-03
     7.09976181e-02  9.04931873e-03]
   [-2.59319767e-02 -9.00510028e-02 -1.71077922e-01 ... -1.30095199e-01
    -1.63791049e-02 -2.31552981e-02]]

  [[ 2.19238326e-02  5.73016740e-02 -2.87586637e-02 ...  3.55939679e-02
    -3.09037287e-02 -8.65852013e-02]
   [-5.33607937e-02 -1.91722512e-02 -1.47462115e-01 ... -1.26706570e-01
     1.59629956e-02  1.34111056e-02]
   [ 1.23193935e-02  8.63262918e-03  3.57027389e-02 ...  4.88012694e-02
     2.03556214e-02 -9.55717731e-03]
   ...
   [-1.33298784e-01 -9.37286913e-02 -1.16583258e-01 ... -1.04713269e-01
    -1.40732288e-01  7.88008198e-02]
   [ 2.17115358e-02  1.05889104e-02  2.62415968e-02 ... -3.89333218e-02
     1.13108307e-02  5.40602580e-02]
   [-5.31906299e-02 -4.54769917e-02 -1.19372360e-01 ... -2.55156964e-01
    -4.77704667e-02 -7.33842142e-04]]]


 [[[ 7.96536729e-03 -3.53286825e-02 -6.15677051e-03 ... -9.09498185e-02
     1.72470566e-02  3.39856446e-02]
   [ 4.19390574e-02 -2.15723757e-02  7.44860619e-02 ... -3.18353437e-02
     4.74375226e-02  2.90922392e-02]
   [-6.32017106e-02  1.55915301e-02 -3.79074030e-02 ... -1.26156911e-01
    -9.04893875e-02 -8.68890882e-02]
   ...
   [ 6.94406554e-02  1.07541054e-01  1.86635047e-01 ...  1.52160406e-01
     1.60615854e-02  8.74025226e-02]
   [-2.59996243e-02  1.25890434e-01  7.47621581e-02 ...  5.95384352e-02
     7.55865425e-02  5.17075323e-02]
   [ 1.00241192e-01 -1.08977947e-02  1.38783464e-02 ...  6.27480447e-03
     2.40859836e-02 -2.72019766e-02]]

  [[-6.66112006e-02  7.88773969e-03 -8.49642381e-02 ... -9.72814932e-02
    -1.57517251e-02 -2.38172319e-02]
   [ 7.25681800e-03 -1.06598541e-01  5.68310395e-02 ... -2.51527149e-02
    -3.45138460e-02 -9.57910996e-03]
   [-1.28670018e-02 -1.93740346e-03 -1.02890797e-01 ... -1.92322247e-02
    -6.52317796e-03  1.68826729e-02]
   ...
   [-4.20805952e-03  1.13403546e-02  3.53131294e-02 ...  8.46846625e-02
     1.01401307e-01  5.07511124e-02]
   [ 2.18168423e-02  3.17969024e-02 -3.62588763e-02 ...  1.52508197e-02
     8.69558603e-02 -1.08543336e-02]
   [ 4.15400825e-02 -3.59526239e-02 -2.43382137e-02 ... -3.97752635e-02
     5.68369292e-02 -8.27357918e-02]]

  [[-6.64529279e-02  6.01842254e-02  1.40312025e-02 ... -5.35216331e-02
     3.84473912e-02  2.32610554e-02]
   [-8.72177444e-03 -2.10429654e-01  9.50887706e-03 ... -6.86080903e-02
    -5.23714907e-02 -5.37441261e-02]
   [-5.08085936e-02  6.27928525e-02  1.51204346e-02 ...  1.08899958e-01
     7.59367272e-02 -1.13932211e-02]
   ...
   [ 2.25516502e-02 -1.15555249e-01  7.49136731e-02 ... -9.43635926e-02
     1.79783888e-02 -1.06681474e-02]
   [-2.89430600e-02 -7.61928409e-02 -5.44483401e-03 ... -2.53738500e-02
     7.54498392e-02  1.59721840e-02]
   [ 3.82949784e-02 -1.88077137e-01 -2.56711971e-02 ... -1.26938149e-01
     6.18112311e-02 -1.26658648e-01]]

  [[ 3.73983048e-02  5.06653972e-02 -2.21525580e-02 ... -1.20118810e-02
     4.78937887e-02 -1.51631450e-02]
   [-6.93892762e-02 -4.41619903e-02 -6.55095726e-02 ... -1.82673782e-01
    -1.41188443e-01 -8.93918723e-02]
   [ 5.60885482e-02 -4.49717278e-03 -3.21938731e-02 ... -3.72080356e-02
     5.24060391e-02  4.42003421e-02]
   ...
   [-5.02505191e-02 -1.18959248e-01  1.12300757e-02 ... -1.81220472e-01
    -1.52677074e-01 -1.71770733e-02]
   [ 4.25184369e-02 -4.10768203e-02  2.03989670e-02 ... -8.54842439e-02
     3.84497903e-02 -8.55389163e-02]
   [ 2.20472012e-02 -1.57289296e-01 -6.57571405e-02 ... -1.82956502e-01
    -9.24469903e-02 -1.11766800e-01]]

  [[ 2.18303483e-02 -6.23598956e-02  5.62080070e-02 ... -2.48459494e-03
    -4.79987822e-03 -3.52646224e-02]
   [-6.85187727e-02  1.14128746e-01 -1.03318140e-01 ... -1.09012783e-01
    -5.21463305e-02 -3.76115181e-02]
   [-3.37240845e-02  5.33532985e-02  5.73223755e-02 ...  6.55340031e-02
     1.52726285e-02  1.24287186e-02]
   ...
   [-1.70004785e-01 -5.32487780e-02 -1.60886064e-01 ... -1.65440962e-01
    -3.47334370e-02 -7.36303255e-02]
   [-6.15108907e-02  7.60499164e-02 -4.74405326e-02 ... -8.61167759e-02
     4.85807694e-02 -1.64621102e-03]
   [-8.89355689e-03  4.07507084e-02 -1.55771136e-01 ... -8.06527063e-02
    -4.16341387e-02 -1.79134905e-02]]]]
conv2d_1/bias:0
(32,)
[ 0.00059897 -0.00589178  0.02149696 -0.01868545  0.00180313  0.00748661
  0.00183893  0.00435414  0.01041573  0.01128708  0.00781264  0.01279432
 -0.01802044  0.00385324 -0.01878033 -0.00304921 -0.02283194 -0.00430648
 -0.00281877 -0.0353184  -0.01766448  0.00045791 -0.00279798 -0.0262377
  0.00134046 -0.02072633  0.00869152 -0.02950788  0.01535337  0.01828273
 -0.00652017 -0.00768861]
conv2d_2/kernel:0
(5, 5, 32, 64)
[[[[ 0.0119692   0.04540204 -0.03501914 ...  0.01165043 -0.02919164
    -0.03039278]
   [-0.02641302  0.02835269 -0.01373653 ... -0.02012072 -0.00142836
     0.05692152]
   [-0.02613213  0.04511623 -0.00839987 ... -0.02607084 -0.05931644
    -0.07065915]
   ...
   [ 0.05999601  0.00758707 -0.05545567 ...  0.00514287  0.06532648
     0.00541971]
   [ 0.02030094 -0.01136691  0.0162568  ...  0.02105347 -0.06871514
    -0.02508306]
   [ 0.07997225 -0.03127153 -0.03988191 ...  0.03724959  0.03593942
     0.03331707]]

  [[-0.00022268  0.02324453  0.01206423 ... -0.04690197 -0.03494487
    -0.03066032]
   [ 0.02264776  0.00695586 -0.00458541 ...  0.03845783 -0.01693856
     0.01176001]
   [-0.02392607  0.00634764 -0.0180153  ... -0.03171039 -0.00133424
    -0.02892188]
   ...
   [ 0.03037941 -0.01293537 -0.01119566 ...  0.00044063  0.12145498
    -0.06687722]
   [ 0.05386731 -0.05627294 -0.01541203 ...  0.03391147 -0.06007213
     0.00783206]
   [-0.06521128  0.03425514 -0.09254464 ...  0.05170257  0.0758955
    -0.00864564]]

  [[-0.00694436 -0.0141808   0.00673258 ...  0.02920728 -0.04965816
     0.08748553]
   [-0.05124243 -0.09102098 -0.00121982 ... -0.02603105  0.02055614
    -0.01435683]
   [ 0.01965115 -0.02218422  0.02986609 ...  0.04240784 -0.05276212
    -0.02723956]
   ...
   [ 0.01963435 -0.01124758  0.00693189 ... -0.03173853  0.08568467
    -0.01442311]
   [-0.01537501 -0.05818642  0.10325389 ... -0.01231372  0.06290648
    -0.01516023]
   [ 0.00063003  0.00437168  0.04454936 ...  0.05014727 -0.03982147
    -0.04968451]]

  [[ 0.02249677 -0.07051609 -0.04073329 ... -0.01277615  0.0085339
     0.01651174]
   [-0.10159145 -0.04094258  0.0695488  ... -0.0280618   0.00255448
     0.05526556]
   [ 0.11806022 -0.06197847  0.03527113 ...  0.01989896 -0.0168597
    -0.04137463]
   ...
   [ 0.0099359  -0.06275102 -0.01584138 ... -0.05754341  0.04502447
    -0.02926577]
   [-0.08005125 -0.04240299  0.08625372 ... -0.00895213 -0.04370884
    -0.0521323 ]
   [ 0.03939064 -0.04696178  0.08005725 ... -0.09570611  0.01553345
    -0.02472543]]

  [[ 0.04754211 -0.03206657 -0.03356436 ...  0.02649785 -0.02808061
     0.00915602]
   [ 0.042691   -0.02369123  0.06952774 ...  0.01435575  0.00061234
     0.01475444]
   [-0.0352385  -0.09271142  0.03564154 ... -0.02741496  0.10630777
    -0.07507952]
   ...
   [-0.08043119 -0.07937851  0.0637118  ... -0.10189058  0.14286658
    -0.12603828]
   [-0.04160196 -0.07309245  0.06113354 ...  0.00496346  0.07837989
    -0.07358414]
   [ 0.0445075  -0.0695774   0.00591523 ... -0.02245881  0.04581178
    -0.01065254]]]


 [[[ 0.02772283  0.0005099   0.00299293 ...  0.00943808 -0.04111475
    -0.02613352]
   [ 0.0685035  -0.01363486 -0.00909928 ... -0.02556774  0.06637123
    -0.03098549]
   [-0.04236477 -0.04331157 -0.00972722 ... -0.00619723  0.05158967
     0.04043159]
   ...
   [-0.0338193   0.01339189 -0.0553911  ... -0.0355691   0.04365437
    -0.02732334]
   [-0.06256028  0.00400788  0.02654558 ... -0.01632909 -0.00566633
    -0.01254532]
   [-0.01485305 -0.02113529  0.05778036 ...  0.02578547 -0.00749321
     0.01363121]]

  [[ 0.01427586 -0.00522391 -0.00770799 ... -0.02505736 -0.06153529
     0.05198738]
   [-0.06679045  0.01016013  0.02560954 ... -0.05552742 -0.01392082
    -0.07736877]
   [-0.01376361  0.01150208 -0.00920303 ...  0.04361401 -0.0371746
    -0.0052879 ]
   ...
   [-0.06044224  0.028225    0.02344739 ...  0.01834085  0.11211226
    -0.01030858]
   [-0.03475687 -0.01602631  0.04604456 ... -0.02259751 -0.00650286
    -0.0289466 ]
   [ 0.0538287  -0.11063588  0.04994053 ... -0.05452186 -0.00517042
     0.00252728]]

  [[ 0.01750834  0.01915204 -0.08637468 ...  0.04714745 -0.18224348
    -0.03446743]
   [-0.12473826 -0.01753963  0.06148925 ... -0.07133552 -0.0282197
     0.04999403]
   [-0.08115125  0.11213723 -0.03452273 ... -0.0068948  -0.0103928
    -0.05393274]
   ...
   [-0.034371    0.02872384 -0.02844852 ...  0.06609641  0.0583807
     0.03213533]
   [ 0.00066192 -0.02972888  0.04452084 ...  0.00872657 -0.03464955
     0.02941774]
   [ 0.03483147 -0.00535939 -0.01479391 ...  0.06983437 -0.08501083
    -0.00941554]]

  [[-0.01889798  0.01193337  0.04766404 ... -0.00927535 -0.14043146
    -0.04540812]
   [-0.05740977 -0.01478878  0.02707311 ...  0.05562627 -0.04899021
     0.04099168]
   [ 0.04882205  0.03555497 -0.04125407 ... -0.05490275 -0.03889105
    -0.00733505]
   ...
   [-0.07597362  0.03639707 -0.04463793 ...  0.02577856  0.04933978
    -0.02968805]
   [ 0.05332277  0.0626045   0.03183287 ...  0.04042194  0.031227
     0.05814364]
   [ 0.03430886 -0.00379406 -0.02949458 ... -0.06290002 -0.00923333
     0.02644594]]

  [[-0.00753602 -0.06387567  0.00573052 ... -0.05090488 -0.02119095
    -0.02177946]
   [ 0.01004203  0.02142407  0.02646437 ...  0.00051794  0.03111208
    -0.06724099]
   [-0.05053599 -0.06374268 -0.01036851 ... -0.02187668  0.00499761
    -0.04153294]
   ...
   [-0.00442855 -0.09711853  0.00055848 ... -0.13100217 -0.07295443
     0.04424217]
   [-0.00444496  0.05132354  0.01900214 ... -0.01225096  0.11291616
     0.00167959]
   [-0.0152699  -0.08081011 -0.02443336 ... -0.04804004  0.02590619
     0.04935815]]]


 [[[ 0.00718329  0.00462671  0.07251266 ...  0.01447398 -0.02823774
    -0.00223864]
   [-0.05188632  0.04410428  0.0233124  ... -0.00335648  0.0341561
    -0.04294728]
   [-0.05365574 -0.04759968  0.03742225 ... -0.07790075  0.04671603
    -0.0616523 ]
   ...
   [-0.01870093 -0.07085104  0.02282539 ... -0.04566053  0.1491335
    -0.00187396]
   [-0.04503151 -0.00971046 -0.05617218 ... -0.12011961  0.06149667
    -0.10067152]
   [ 0.07974354  0.0549734  -0.10081653 ... -0.00208778  0.05479151
    -0.02645567]]

  [[ 0.03266866  0.0409125   0.01200705 ...  0.00103307 -0.02166791
     0.03744105]
   [-0.13731006 -0.07911428  0.00982785 ... -0.15779838 -0.05634318
    -0.04851303]
   [-0.00281361 -0.03815326 -0.00949152 ...  0.04758387  0.02304002
    -0.0137886 ]
   ...
   [-0.03081562  0.01686432 -0.07084801 ...  0.02952419  0.05465436
     0.06622524]
   [-0.07497444 -0.01483528 -0.04975444 ... -0.07635619  0.04216256
    -0.02087821]
   [-0.00923892  0.05592588 -0.04381673 ...  0.11969557 -0.03239273
     0.08395274]]

  [[ 0.05626482  0.00437034 -0.02149642 ... -0.03335868 -0.01343159
     0.04224723]
   [-0.10569073 -0.00888589 -0.07401382 ...  0.00183374 -0.07941753
    -0.07515933]
   [-0.05797257  0.02348293 -0.11143906 ... -0.0012413   0.08721889
     0.05657401]
   ...
   [ 0.04745959  0.05162524 -0.12251284 ...  0.06744213  0.01527944
    -0.00577661]
   [-0.02501463  0.09616914 -0.07380646 ...  0.02386581  0.03579739
     0.01167934]
   [ 0.04230324 -0.04875561 -0.01753524 ... -0.04017619 -0.01610209
     0.00212004]]

  [[ 0.05403425 -0.00768713  0.01711253 ... -0.00509119 -0.0820855
     0.03965279]
   [ 0.03668934  0.02043027 -0.08309995 ...  0.05057816 -0.01223525
    -0.10616466]
   [-0.09952015 -0.0156241  -0.09100757 ... -0.02924581 -0.00935544
     0.01450455]
   ...
   [ 0.07123535  0.0134403  -0.04103833 ... -0.01761596  0.03174074
    -0.02661917]
   [ 0.05796466  0.08988302 -0.02088424 ... -0.02349824 -0.02689328
     0.02732196]
   [ 0.06867575 -0.06719284 -0.01156653 ... -0.0251556  -0.08659453
     0.03885517]]

  [[ 0.06413385  0.04837842 -0.05504448 ... -0.04740229  0.07390913
    -0.00770504]
   [ 0.02674861  0.02294598  0.03506455 ... -0.01680544  0.06196371
     0.00836683]
   [-0.12161724  0.01110475 -0.02671799 ... -0.02996237  0.00661143
    -0.03030003]
   ...
   [-0.00182514 -0.08493844  0.02867714 ... -0.08703949 -0.00094328
     0.01991922]
   [-0.00687886 -0.01169326  0.01159026 ... -0.11692033 -0.03822772
     0.0294592 ]
   [ 0.03249661 -0.05598492 -0.03242599 ... -0.02028339 -0.00925731
    -0.02096731]]]


 [[[ 0.06255212 -0.00612105 -0.0025318  ... -0.03254167 -0.03101092
     0.06097111]
   [-0.05116855 -0.04575076 -0.0701346  ... -0.01442986 -0.02862603
    -0.05199664]
   [-0.03288192 -0.08830163  0.02104604 ... -0.10729977 -0.02367638
    -0.0263796 ]
   ...
   [-0.06750777 -0.07135818 -0.00992355 ... -0.09920786 -0.03658646
     0.00295091]
   [-0.06059444 -0.11269903 -0.02219651 ... -0.09404034  0.02615422
     0.02090476]
   [ 0.03140433 -0.02168243 -0.011146   ...  0.03713857 -0.02666607
     0.04044501]]

  [[ 0.03953168  0.05954881  0.00415863 ... -0.03939473 -0.03539496
    -0.00393342]
   [-0.04950907 -0.05647326 -0.03578265 ...  0.02342975 -0.0202654
     0.0103323 ]
   [-0.08520477 -0.03640917  0.08300193 ... -0.02657348  0.02736707
    -0.00354738]
   ...
   [ 0.04420339  0.07788792 -0.0267292  ... -0.03900132 -0.05826879
     0.00704394]
   [-0.01140377 -0.03976169  0.03483897 ... -0.01284247  0.05277862
    -0.01968989]
   [ 0.03495974  0.06827916 -0.04031485 ... -0.03937091 -0.05052415
    -0.04591209]]

  [[ 0.03839419  0.03163565  0.04829461 ... -0.02114866  0.02530334
    -0.0185064 ]
   [ 0.03267211  0.05870776  0.01472897 ... -0.03010676 -0.06463798
    -0.03391206]
   [-0.06736776 -0.05206698  0.01524195 ...  0.0642359  -0.11241492
    -0.01706035]
   ...
   [ 0.09376945  0.07712657 -0.05304368 ...  0.09626301 -0.10919488
     0.00386009]
   [-0.06255047  0.00520496 -0.06873976 ...  0.04785888 -0.05071619
    -0.03062   ]
   [ 0.02125197 -0.09010442 -0.0039375  ... -0.14215727  0.0321039
    -0.03638785]]

  [[ 0.01803512  0.00695607  0.00350159 ...  0.0140714  -0.02857032
    -0.05875426]
   [ 0.02731461 -0.05207001 -0.03313842 ...  0.05171001 -0.11648908
    -0.04159513]
   [-0.08639257 -0.02643901 -0.05024628 ...  0.08784366 -0.10839564
     0.01279832]
   ...
   [ 0.02869462 -0.02711812  0.05104571 ...  0.03307339 -0.02362032
    -0.07751635]
   [ 0.06179123 -0.06512015 -0.10653491 ...  0.00552847 -0.00489256
     0.06060705]
   [-0.06057782 -0.01391449 -0.01738271 ... -0.10386848 -0.01970365
    -0.09773089]]

  [[-0.03361337  0.0002356   0.02812556 ...  0.03769236  0.03620437
    -0.01776448]
   [ 0.04241747 -0.00560174  0.03009107 ...  0.06487007  0.00694333
    -0.03971559]
   [-0.00144941  0.05479507 -0.09314544 ...  0.06624027 -0.0174035
    -0.04550042]
   ...
   [-0.01022019  0.07711086  0.04088525 ... -0.00325852 -0.01748667
    -0.12475349]
   [ 0.01905585 -0.0408623  -0.05501774 ... -0.03569399  0.04911056
    -0.06604301]
   [-0.01129142  0.00235424 -0.00938775 ...  0.00595865  0.00622396
    -0.00840844]]]


 [[[ 0.06833502 -0.04638032  0.05644396 ...  0.01808432  0.02578262
     0.0856863 ]
   [-0.02808255  0.00824614  0.03330143 ...  0.03839016  0.04506327
     0.07799057]
   [-0.00468503 -0.01219792  0.0076987  ... -0.00722135  0.04399256
    -0.0107739 ]
   ...
   [-0.00782765 -0.01359867  0.03401032 ...  0.03450517 -0.06080221
    -0.02153517]
   [ 0.06037615 -0.00423916  0.06067803 ...  0.00051376  0.03319794
    -0.00965826]
   [ 0.00034186  0.00292237 -0.05924891 ...  0.01124203  0.08369052
    -0.01110576]]

  [[-0.04871578 -0.04243136 -0.01126795 ... -0.00281328  0.08964559
    -0.00684139]
   [-0.08048806 -0.03551636  0.01783678 ...  0.03567034  0.07870038
     0.05126082]
   [-0.04389002 -0.0311525  -0.00976074 ...  0.03133446 -0.09249619
     0.00971282]
   ...
   [ 0.00339598  0.02031592  0.00088103 ... -0.03917419 -0.01582182
     0.07259104]
   [ 0.02907338  0.01958683  0.00943347 ...  0.00672671 -0.03967663
     0.0271129 ]
   [ 0.00264279 -0.01038118 -0.06540826 ...  0.04561282  0.05972734
     0.00316694]]

  [[-0.06424556  0.00042936  0.0199743  ... -0.03537644  0.08352706
    -0.02327915]
   [-0.02528873 -0.08361433  0.01279642 ...  0.01030764  0.02570965
     0.03773521]
   [ 0.04350876 -0.01500836  0.05990516 ... -0.0329458  -0.12373787
     0.06944276]
   ...
   [ 0.06904095  0.05104898  0.02233586 ...  0.01722626  0.00841639
    -0.00435095]
   [-0.01913196  0.00456115 -0.00659598 ... -0.00624108 -0.09270756
     0.07630114]
   [-0.07976495 -0.0090367   0.02267932 ... -0.01420743  0.02443567
    -0.03031934]]

  [[ 0.01749919  0.03219543 -0.02858204 ... -0.05519552  0.0739554
    -0.01768918]
   [-0.05197241  0.00205652 -0.03157549 ... -0.02811569  0.06351438
    -0.00524282]
   [ 0.04254045 -0.01799008  0.01313785 ...  0.00772606 -0.06047527
     0.01052113]
   ...
   [ 0.00615845 -0.00868865  0.07517402 ...  0.01723791 -0.02245348
     0.02322386]
   [ 0.05321207 -0.01561212 -0.04322779 ... -0.01110379 -0.03813304
     0.0377562 ]
   [-0.04643965  0.02913001 -0.00078401 ...  0.01044834  0.09066792
    -0.02679318]]

  [[-0.03289125 -0.05885923 -0.05277018 ... -0.07323452  0.02068611
    -0.03723664]
   [-0.06873761 -0.01119573 -0.00223697 ... -0.034742    0.12584393
     0.05213309]
   [ 0.03056435 -0.05402853 -0.00786425 ...  0.01854902 -0.07135408
    -0.03893733]
   ...
   [ 0.00601467 -0.01924186 -0.07728351 ...  0.07738762  0.00607675
    -0.05526176]
   [ 0.00031681  0.05726509 -0.02912365 ... -0.0484842  -0.00292652
     0.03321305]
   [ 0.03081067 -0.07002429 -0.04388692 ...  0.07575725  0.00901995
    -0.05146449]]]]
conv2d_2/bias:0
(64,)
[ 1.5349050e-02 -1.6365908e-02  7.7906502e-03  1.4874927e-02
  3.1033207e-02  8.2840901e-03  4.0563587e-02  2.8701000e-02
 -6.1586956e-03  2.3644608e-03  5.7407236e-03 -2.0654863e-03
  1.7838892e-02  9.0419743e-03  4.2011783e-02 -1.1180057e-02
  1.1363038e-02  1.8865449e-02  2.8456034e-02  5.6803664e-03
  1.9888088e-02  2.8421819e-02  1.7063705e-02 -7.2298491e-05
  1.9105565e-02  3.2079162e-03 -3.0977072e-02 -5.1259408e-03
  2.3599213e-02  2.5582558e-03 -2.8993987e-02 -1.6318655e-02
  3.6444619e-02 -8.7086782e-03  7.2169229e-03  4.8496635e-03
  1.0009902e-02 -1.0325646e-02 -3.4495934e-03  9.5953504e-03
 -9.4704265e-03 -4.4117118e-03  1.3896335e-02 -4.5601679e-03
  5.6134616e-03 -4.9666492e-03 -5.3859238e-02  3.2698057e-04
 -2.4668155e-03  1.5730238e-02  8.8735474e-03  2.9388545e-02
  3.6422431e-02  1.9861201e-02  3.9968047e-02  4.9912212e-03
  1.4567041e-02  4.1296039e-02 -1.7238462e-03  9.4771096e-03
  6.3097151e-03  2.2271758e-02  3.5364509e-02  4.7601726e-02]
conv2d_3/kernel:0
(5, 5, 64, 128)
[[[[-5.87147810e-02 -2.55483389e-02  4.24665846e-02 ...  2.58644763e-03
     1.90109499e-02 -2.83095781e-02]
   [ 1.25508970e-02  2.01838855e-02  1.82956401e-02 ... -2.71431077e-02
    -3.20454650e-02 -4.78017218e-02]
   [-5.78815453e-02 -5.14093861e-02 -1.87904425e-02 ...  3.59308608e-02
    -4.94605042e-02 -2.77998541e-02]
   ...
   [-3.10937520e-02  1.92417689e-02  2.94492729e-02 ...  2.20570937e-02
    -4.92577627e-02 -7.92240072e-03]
   [-4.32322957e-02  4.58606295e-02  5.85938282e-02 ... -1.18153123e-02
    -1.97359063e-02  1.95831377e-02]
   [-6.88451156e-02  2.22082231e-02  2.69108061e-02 ...  7.97450077e-03
     7.61616752e-02  5.26961684e-02]]

  [[-1.95312053e-02 -4.44477797e-02  2.06653923e-02 ... -1.45702055e-02
     3.04402958e-04 -3.72928232e-02]
   [-4.86867838e-02  2.68065929e-02  4.09674980e-02 ... -3.27484682e-02
    -1.39477458e-02 -7.29237571e-02]
   [-1.03536909e-02 -2.64860597e-02 -6.38495665e-03 ... -1.19479708e-02
     5.16693592e-02  4.12403904e-02]
   ...
   [-9.57639515e-02  3.01214270e-02 -2.16469765e-02 ...  1.64315216e-02
     1.59514043e-02 -2.37763170e-02]
   [-8.58867541e-02 -7.54652843e-02  2.76670828e-02 ... -5.63873816e-03
    -1.12576291e-01  3.68317477e-02]
   [ 4.92909439e-02 -1.54394459e-03 -2.77277566e-02 ...  3.57957953e-03
     3.60920504e-02  7.58810267e-02]]

  [[ 1.41233895e-02 -4.14136983e-02  4.91653103e-03 ...  9.75907892e-02
     3.90124321e-02 -8.71939771e-03]
   [-2.57268436e-02 -8.49636830e-03  3.76416035e-02 ... -2.24436261e-02
     2.81882416e-02  6.05441025e-03]
   [-7.23874420e-02 -2.61196773e-02  2.71977745e-02 ...  4.01993562e-03
    -2.90043708e-02  4.02744487e-02]
   ...
   [-4.05509723e-03 -3.59942354e-02  2.67304890e-02 ... -5.22555737e-03
     9.65949241e-03  4.15848121e-02]
   [ 2.34479904e-02 -7.92431459e-02 -6.43412396e-02 ... -5.66136464e-02
    -1.06312661e-02  1.75596252e-02]
   [-7.19068423e-02 -1.07567078e-02 -2.37448905e-02 ...  4.88824919e-02
     2.41081603e-02  4.46825698e-02]]

  [[-2.36570463e-02  2.97322497e-02  4.80040610e-02 ... -1.86580070e-03
     6.37620836e-02 -5.16275764e-02]
   [-5.17121777e-02 -3.44668552e-02  3.96085382e-02 ...  5.21097034e-02
     3.36136781e-02 -7.96836335e-03]
   [-5.24440035e-02  9.16976556e-02 -5.79993837e-02 ...  2.79498454e-02
    -7.14346766e-02  3.24973129e-02]
   ...
   [ 1.30559364e-02  3.79359163e-03 -2.72325575e-02 ...  2.68277861e-02
    -1.84448175e-02  2.43957341e-02]
   [ 1.20192789e-01 -4.80427630e-02  4.93535248e-04 ... -4.98743802e-02
     1.72760561e-02  1.15835093e-01]
   [ 1.25276208e-01 -2.98602730e-02 -5.82450144e-02 ... -2.78469641e-03
     1.06867431e-02  4.70001437e-02]]

  [[-6.06881045e-02  3.04492041e-02 -2.93882042e-02 ... -3.11197626e-04
     5.95181510e-02 -5.65237226e-03]
   [-5.36645018e-02  4.15558554e-03 -3.88817936e-02 ...  3.35892141e-02
    -3.36386524e-02 -2.90289801e-02]
   [-2.51603052e-02  6.18678890e-02 -7.76904169e-03 ...  5.78769520e-02
    -3.96483019e-02  2.05793101e-02]
   ...
   [-9.36725661e-02 -3.28594744e-02 -8.08456615e-02 ... -4.58556488e-02
     3.77937146e-02 -1.55963870e-02]
   [-5.21138078e-03  2.50968635e-02 -1.07071046e-02 ...  3.31801921e-02
    -8.79202038e-03 -2.71790605e-02]
   [ 2.22910065e-02 -3.38850394e-02 -4.61518653e-02 ... -3.69272120e-02
     7.56081790e-02  3.94425541e-02]]]


 [[[-3.99883231e-03 -8.44826549e-03 -2.69907177e-03 ... -9.62789282e-02
     4.58387053e-03 -4.08107974e-02]
   [-3.50789092e-02 -1.68836918e-02 -2.95584649e-02 ...  5.77491634e-02
     6.15009293e-03 -5.70713319e-02]
   [-9.02031024e-05  2.11844090e-02  2.76939664e-02 ... -1.77975483e-02
     4.91239503e-03  3.48507520e-03]
   ...
   [-1.45024285e-02 -3.56018767e-02 -5.45007810e-02 ...  3.58085260e-02
    -1.95612032e-02 -2.46653575e-02]
   [-9.89805833e-02 -1.06438128e-02  9.61812511e-02 ... -1.91812012e-02
     9.13144089e-03 -1.34452432e-02]
   [-4.05765139e-02  2.08939407e-02  2.45870724e-02 ... -1.75483408e-03
     2.17600390e-02 -5.39879780e-03]]

  [[ 3.04638911e-02  1.96880866e-02  3.53591554e-02 ... -1.17669692e-02
     2.19093785e-02 -1.01415338e-02]
   [ 1.29692284e-02 -1.57955028e-02  1.25369811e-02 ... -9.01150703e-02
     6.56470936e-03 -3.07589583e-02]
   [ 1.22621469e-02 -3.48056778e-02 -1.89601257e-02 ...  6.97842464e-02
    -2.84328833e-02 -6.89561013e-03]
   ...
   [-2.63445769e-02  7.49383913e-03 -7.71352043e-03 ... -2.97705587e-02
    -7.94375548e-04  2.25997530e-02]
   [-5.65635739e-03  5.43294623e-02 -2.86208298e-02 ...  6.30296916e-02
    -6.77375821e-03 -4.39484008e-02]
   [-1.02597410e-02 -3.73707898e-02 -1.01376092e-02 ...  1.66629460e-02
    -2.39126082e-03 -3.32620926e-03]]

  [[ 2.06709784e-02 -1.90017521e-02  3.18806432e-02 ...  1.50607037e-03
     1.26888622e-02 -7.16483891e-02]
   [-7.24581555e-02 -4.50127432e-03  1.36560027e-03 ... -1.52954310e-02
    -2.71831057e-03 -1.49059005e-03]
   [ 4.79868837e-02 -5.66077866e-02 -1.68874562e-02 ... -7.99033325e-04
    -2.52615623e-02 -4.29902636e-02]
   ...
   [-5.03778085e-02 -3.73204574e-02 -4.52478901e-02 ...  6.29607914e-03
     3.14205624e-02 -2.26437543e-02]
   [-1.18238926e-02  4.46592681e-02 -8.39934200e-02 ... -4.89362217e-02
    -6.58375546e-02 -3.21536101e-02]
   [-7.64212981e-02  3.32361236e-02  2.75725010e-03 ...  3.37340944e-02
     3.96985859e-02 -4.28518020e-02]]

  [[-3.00965831e-02 -2.45611928e-02 -4.89152633e-02 ... -2.05292851e-02
    -1.44475205e-02  2.26821471e-03]
   [-4.20418233e-02 -2.89353784e-02  3.37855630e-02 ...  5.44324666e-02
     2.43383273e-02  3.05987126e-03]
   [ 3.84866036e-02 -6.61884714e-03  3.67566347e-02 ... -8.32212791e-02
    -2.31565572e-02 -2.89700907e-02]
   ...
   [-1.37933090e-01 -3.38668898e-02 -5.16867079e-02 ...  2.16186345e-02
     4.39444883e-03  1.38150603e-02]
   [-4.55552116e-02  4.91409376e-02 -8.59861728e-03 ... -1.03417197e-02
    -2.06098538e-02 -6.21814691e-02]
   [ 1.78900678e-02  1.58262290e-02 -2.87348907e-02 ...  2.70897690e-02
     2.28702258e-02 -2.17222534e-02]]

  [[-7.20299706e-02  1.08811446e-03 -7.58284470e-03 ... -1.81364194e-02
    -2.89354455e-02  3.08467653e-02]
   [-1.22058839e-01  4.60841917e-02 -4.54116985e-02 ... -7.42655322e-02
     1.61754880e-02 -3.28772515e-02]
   [-7.84414187e-02 -2.38506477e-02  8.70993640e-03 ...  7.45975748e-02
    -2.96785813e-02  3.07458788e-02]
   ...
   [ 6.71003759e-02  4.81839366e-02 -1.08841695e-02 ... -1.87125430e-02
     1.68659687e-02 -5.73795885e-02]
   [-8.35032016e-02  3.57482806e-02 -1.90507509e-02 ... -1.85994692e-02
     2.37434749e-02 -3.23915258e-02]
   [-5.83918318e-02  2.93728076e-02 -3.27141099e-02 ...  5.68198878e-03
    -4.86288704e-02 -1.81127787e-02]]]


 [[[ 7.39795193e-02 -3.51645201e-02  1.01862298e-02 ... -3.19862179e-02
     7.38254888e-03 -4.26355787e-02]
   [-1.21289017e-02 -2.29196679e-02  1.49857327e-02 ... -7.59848300e-03
    -3.41403252e-03 -8.49702023e-03]
   [-7.45376647e-02  1.29337152e-02  8.32316354e-02 ...  2.07671877e-02
     1.59764197e-02 -3.65397781e-02]
   ...
   [-1.54006137e-02  3.28816101e-02 -3.61506864e-02 ... -2.12857090e-02
     3.01566552e-02  3.26759107e-02]
   [-4.44977395e-02  8.15019384e-03 -2.29740608e-02 ...  3.01763527e-02
    -9.00938138e-02 -4.12270427e-02]
   [-2.91334465e-02 -2.14092117e-02  4.44654264e-02 ... -1.41851231e-02
    -3.51507403e-02  8.18790868e-03]]

  [[ 5.50368428e-02 -3.44918966e-02  1.50842834e-02 ... -1.36117330e-02
     3.20807211e-02 -2.31228285e-02]
   [ 2.25577336e-02 -5.93665941e-03  4.38772850e-02 ...  2.14999001e-02
     5.93408197e-03  8.02348368e-03]
   [-1.17536128e-01  5.07268719e-02 -4.16581668e-02 ...  4.96679656e-02
    -5.25195757e-03 -1.40618542e-02]
   ...
   [-2.16080640e-02  2.40915548e-02  3.47402841e-02 ... -7.42287710e-02
     3.41241583e-02 -3.28359008e-03]
   [ 1.95669103e-02  3.10133770e-03 -6.55553341e-02 ...  3.84939983e-02
    -6.24600463e-02  1.36696100e-02]
   [ 2.05327850e-02  2.18801945e-02 -1.84389893e-02 ... -6.61339685e-02
    -7.63751566e-02 -1.66905895e-02]]

  [[-1.74316168e-02 -4.38115411e-02 -6.95335120e-02 ... -6.39020000e-04
     1.16580063e-02 -8.67902339e-02]
   [-7.05835223e-02 -1.90115310e-02  1.89312361e-02 ...  5.28052310e-03
    -1.77430864e-02 -3.45017537e-02]
   [-5.26631065e-02  5.99730127e-02 -3.16469595e-02 ... -8.13546181e-02
    -7.50775710e-02 -5.86151667e-02]
   ...
   [-3.31059061e-02  4.38155606e-04 -5.36110997e-03 ...  4.40827683e-02
     1.92546099e-02 -7.47084618e-02]
   [ 5.10205366e-02  9.50790104e-03 -6.25500903e-02 ...  2.63996795e-02
     1.91033224e-03 -2.48504691e-02]
   [-1.12207197e-02 -2.20299698e-02  3.37899812e-02 ... -2.42007114e-02
     5.14900610e-02 -5.52437603e-02]]

  [[-6.98062778e-02 -8.33586976e-03 -7.61028305e-02 ... -1.04944378e-01
    -4.52262349e-02  3.93786188e-03]
   [-6.49112510e-04 -1.18548237e-02 -6.19114563e-02 ...  2.72258483e-02
     2.50221025e-02 -2.12221257e-02]
   [ 1.08063959e-01 -9.50317364e-03 -3.71670313e-02 ...  5.41506708e-02
    -8.51244293e-03  1.58038316e-03]
   ...
   [-4.91239913e-02  8.31288472e-03 -3.26899998e-02 ...  1.56663023e-02
    -1.07499473e-05  2.73181051e-02]
   [ 3.47559191e-02  2.43510436e-02 -1.51099358e-02 ...  1.29573804e-03
    -1.31725362e-02  8.35744897e-04]
   [ 3.43878865e-02 -1.72673259e-02  2.49836706e-02 ...  1.16505297e-02
     1.77868031e-04 -7.66461492e-02]]

  [[-7.53563317e-03 -5.21584637e-02 -2.95258164e-02 ... -3.13368626e-02
    -8.13125521e-02  6.16531484e-02]
   [-5.62416874e-02  3.63517106e-02 -4.83227447e-02 ...  1.83119178e-02
    -8.54807645e-02  4.86715771e-02]
   [-8.83928165e-02  1.25220828e-02 -4.19230014e-02 ...  2.70788483e-02
    -6.77293912e-02  2.02606572e-03]
   ...
   [ 2.39782985e-02  7.17330957e-03 -1.53555274e-02 ... -2.48398297e-02
    -1.56136481e-02  1.62139628e-02]
   [ 5.33990413e-02  3.95211391e-02  3.74554172e-02 ... -4.01617493e-03
     3.72814797e-02 -6.80680946e-02]
   [-1.09296694e-01 -4.49068882e-02 -3.06667052e-02 ... -4.48382124e-02
     3.67054529e-03  2.46005785e-02]]]


 [[[-8.16612244e-02 -2.80588353e-03 -1.21699311e-02 ...  2.89502237e-02
    -3.33829820e-02  1.49765173e-02]
   [ 5.98361017e-03  6.74218535e-02  2.02226266e-02 ... -5.17463870e-02
     2.73180157e-02  4.52641733e-02]
   [ 4.14169952e-02  2.44503301e-02  1.85657386e-02 ... -4.99679707e-02
    -5.54079050e-03 -3.79422121e-02]
   ...
   [-2.88040191e-02  6.31558299e-02 -7.04628415e-03 ... -7.16669858e-02
     2.59917532e-03  6.89716684e-03]
   [ 5.34318835e-02 -4.35952656e-02  7.94111099e-03 ... -3.14455554e-02
    -5.71364053e-02 -8.39481875e-02]
   [-7.32372655e-03  1.61268339e-02 -5.40061556e-02 ...  6.40347898e-02
    -3.49584706e-02  8.49626493e-03]]

  [[ 2.62152124e-02 -2.34526191e-02 -2.32330784e-02 ...  3.09637040e-02
     1.49851106e-02 -4.36976478e-02]
   [ 5.03299711e-03 -5.63560501e-02  1.28454110e-02 ... -3.50624286e-02
     4.01937962e-02  2.20003054e-02]
   [-3.06684673e-02  1.73914451e-02 -2.26753950e-02 ...  3.15745808e-02
    -3.61087359e-02  2.83167958e-02]
   ...
   [ 5.29491976e-02 -4.59190011e-02 -1.17643392e-02 ...  3.19842063e-02
    -2.60713920e-02 -5.27136901e-04]
   [ 1.20775893e-01 -3.00195199e-02  6.84531406e-03 ... -4.38133739e-02
    -4.69955169e-02  4.30726260e-02]
   [ 3.27484645e-02  3.40647660e-02  1.68345664e-02 ...  1.51148532e-03
     1.73519999e-02 -1.27126910e-02]]

  [[-1.61423744e-03 -8.77523515e-03 -8.69066566e-02 ...  2.19223183e-02
    -2.56450083e-02 -6.97247311e-02]
   [ 7.69795338e-03 -5.05873710e-02  3.18779312e-02 ...  1.52009130e-02
     4.15320182e-03 -8.18595216e-02]
   [-1.23457022e-01 -5.02438135e-02 -1.46094346e-02 ... -2.46118084e-02
    -6.81546330e-02 -5.67580909e-02]
   ...
   [-1.62863787e-02 -5.31308213e-03  4.07770090e-02 ...  3.15678604e-02
     3.23278904e-02 -7.47329369e-02]
   [ 8.57042372e-02 -6.45239800e-02  3.40609290e-02 ...  7.85368960e-03
     6.24702079e-03  8.41925070e-02]
   [-2.05556070e-03 -1.72416884e-02  7.13566039e-03 ... -9.02291620e-04
    -2.40810290e-02 -4.28977683e-02]]

  [[ 4.37865369e-02  1.13509819e-02 -9.36779752e-02 ... -6.60775974e-02
    -1.36790909e-02  3.87278432e-03]
   [-5.76353399e-03  8.53705965e-03  8.20993818e-03 ...  5.53472415e-02
     5.25631569e-02 -1.00619039e-02]
   [-1.16607323e-01 -3.99333388e-02 -8.75652768e-03 ...  1.10126631e-02
     2.33588107e-02 -3.73411849e-02]
   ...
   [ 3.89390811e-02  2.41530333e-02 -2.77086478e-02 ...  2.74344888e-02
     3.02082859e-02 -5.81839271e-02]
   [ 1.92035362e-02  2.40573529e-02  8.18134025e-02 ...  5.31668253e-02
     2.33165976e-02  2.70888978e-03]
   [-5.85078411e-02  2.49440521e-02 -6.09247908e-02 ...  1.53397815e-02
    -3.95369940e-02 -1.93824642e-03]]

  [[-9.86081883e-02  2.70926207e-03  4.24033366e-02 ... -3.82134095e-02
    -1.30016981e-02 -1.47374189e-02]
   [-6.31980151e-02 -1.65448207e-02 -4.85897250e-03 ... -5.08575588e-02
    -7.89844915e-02 -7.10751489e-03]
   [-2.30550002e-02  4.20387974e-03 -2.07769107e-02 ... -1.73952710e-02
    -9.49668232e-04 -1.40290065e-02]
   ...
   [ 4.41345153e-03  1.67562235e-02  7.33271465e-02 ... -5.40886074e-02
     2.43182164e-02  1.86794978e-02]
   [ 8.78888220e-02  3.48877497e-02  3.24830897e-02 ... -3.00029982e-02
    -1.20987454e-02 -4.64455523e-02]
   [ 3.32837775e-02  2.32621003e-02 -2.48830412e-02 ...  4.82640229e-03
    -4.92903106e-02  8.11213721e-03]]]


 [[[-5.87938214e-03  2.42312215e-02 -3.14595476e-02 ...  2.61533745e-02
     3.15135880e-03 -2.83880662e-02]
   [-4.31464873e-02  8.22926406e-03 -3.45279090e-02 ... -1.13801010e-01
    -2.39331014e-02 -2.64337473e-02]
   [ 8.49120039e-03 -8.83562025e-03  1.39188310e-02 ...  3.88263725e-02
     4.48933523e-03  1.22887772e-02]
   ...
   [ 4.14160118e-02 -4.45658043e-02 -2.98644546e-02 ... -4.78893444e-02
     1.40185431e-02 -1.36915036e-02]
   [ 8.16593096e-02  1.88776199e-02  1.30970450e-02 ...  4.13055718e-02
    -6.43552840e-02 -3.27781774e-02]
   [ 7.71712698e-03  2.49235402e-03  2.75456682e-02 ... -5.01695722e-02
    -3.74870598e-02  6.05577044e-02]]

  [[ 7.06489608e-02  2.76174806e-02 -4.53180261e-02 ... -1.61434487e-02
     9.02745593e-03 -3.83011177e-02]
   [-3.96933854e-02 -2.74683232e-03 -3.25784795e-02 ...  5.26712369e-03
    -1.02558369e-02  6.61182702e-02]
   [-5.34186587e-02 -3.71464603e-02  1.00846328e-02 ... -5.54050319e-02
    -3.01159103e-03  3.21976580e-02]
   ...
   [ 7.63622895e-02 -1.70002878e-02  3.47197033e-03 ...  2.27259770e-02
     3.22157145e-02  4.99290414e-02]
   [-4.27795295e-03 -2.31407601e-02  9.30936113e-02 ...  6.57970682e-02
     2.70352364e-02  4.74143121e-03]
   [ 5.41061256e-03  1.04545094e-02  1.79697221e-04 ... -4.02459167e-02
    -3.10571324e-02  2.72824541e-02]]

  [[ 3.31096873e-02  3.21590751e-02 -4.64151576e-02 ... -1.08948588e-01
    -6.18104637e-02  2.34788395e-02]
   [ 1.19608454e-02 -9.25782660e-04 -3.97977009e-02 ... -2.38406323e-02
     4.11518179e-02 -3.92287858e-02]
   [-1.06278993e-02 -3.04154567e-02  6.93176454e-03 ... -5.52984253e-02
    -7.44736753e-03  4.59122658e-02]
   ...
   [ 1.97340152e-03 -2.57279873e-02  1.40239242e-02 ...  8.15706477e-02
     2.78379861e-02 -1.68909952e-02]
   [-3.60260643e-02  3.86690274e-02  5.08629456e-02 ... -7.35974759e-02
     6.53764829e-02 -6.13718182e-02]
   [ 6.43573925e-02  5.83209954e-02  1.43304397e-03 ...  6.55273125e-02
    -3.91830225e-03  6.51909132e-03]]

  [[-4.05515507e-02  4.35151458e-02 -2.95727607e-02 ... -9.35939774e-02
    -5.46574220e-02 -2.54689753e-02]
   [ 1.28904893e-03  2.44225133e-02 -3.34621221e-02 ...  2.17222627e-02
    -1.40867848e-03 -3.28682065e-02]
   [-1.84394363e-02 -2.63946448e-02  7.69729586e-03 ... -9.76274069e-03
     4.17264812e-02  4.14646231e-03]
   ...
   [ 7.01890513e-02  3.98825966e-02 -4.46365625e-02 ... -3.78751680e-02
     1.39214346e-04 -1.40216202e-02]
   [-6.97929263e-02  2.21357513e-02 -3.60806137e-02 ... -5.36410278e-03
    -3.49282734e-02 -7.17486590e-02]
   [-6.19148165e-02 -2.36395770e-03 -3.81712951e-02 ...  4.67299335e-02
     1.88025972e-03 -2.49704532e-02]]

  [[-1.08001761e-01  7.79731125e-02  4.65346240e-02 ... -5.11661544e-02
    -3.80658023e-02 -5.59434071e-02]
   [-7.30774850e-02  2.88069271e-03 -2.84549836e-02 ... -1.16914988e-03
    -5.95645383e-02  6.60692975e-02]
   [-2.32390966e-03 -2.35985797e-02 -1.04933819e-02 ...  5.26156742e-03
     1.12151681e-02  4.09504995e-02]
   ...
   [-1.28990829e-01 -7.53015419e-03 -4.75316755e-02 ... -5.29178977e-02
    -6.88901022e-02 -6.53614923e-02]
   [-4.48498614e-02  4.05102745e-02 -3.35206091e-02 ... -2.59070713e-02
     3.79233249e-03 -7.55809322e-02]
   [-5.34383506e-02 -3.48400213e-02 -4.72757779e-02 ... -4.35794238e-03
    -1.02526182e-02 -3.45990323e-02]]]]
conv2d_3/bias:0
(128,)
[-0.01319803 -0.00135766 -0.01545186  0.01094806  0.00246499  0.00077572
  0.00801761 -0.00120611  0.01470999  0.01355875  0.00585464  0.00366754
 -0.01307527  0.01282819 -0.00515454  0.00770741  0.00267623  0.01102075
 -0.01034089 -0.01507837  0.03490093  0.02844544  0.04069761  0.02029417
 -0.01593363  0.02587112 -0.00284203  0.0125474   0.00123023  0.00046623
  0.02070216 -0.02481045  0.0150727   0.03210924 -0.00318735 -0.00870319
 -0.01042396 -0.00048511 -0.01005836  0.00173721  0.01810567  0.01835679
 -0.00325787  0.00850297  0.00414074  0.0364374   0.00396236  0.01045771
  0.00544636  0.01445564 -0.04796753  0.01498256  0.01324155 -0.02576873
  0.02222091 -0.00117402  0.00607701  0.0060302   0.0169904   0.0263774
  0.02212756  0.00203019  0.02397751 -0.00886162  0.01669862  0.01723228
  0.00760102  0.01323247 -0.00999539  0.02296734  0.00122766  0.01827198
  0.01643996  0.016454    0.00477296  0.00195741  0.02237228  0.00110469
  0.00622211 -0.01151897 -0.0111736  -0.00845395 -0.00984283  0.00262715
  0.00530074  0.02037408  0.00162972  0.01892161  0.00783289  0.01845636
 -0.00590309  0.01267855  0.01001095  0.03619185  0.03904587 -0.01177039
  0.00398981 -0.00297836  0.00019797 -0.01233346  0.02029678  0.02252683
  0.01990538  0.01977702  0.00588597 -0.02199748 -0.01560431  0.02604425
 -0.00248039  0.00800166 -0.03871442 -0.00406095  0.01767737 -0.01536642
  0.029631    0.03677793  0.01853319  0.00297284  0.01163541  0.01910157
 -0.00103446 -0.00916492  0.00795453  0.01002677  0.00886555  0.03006857
 -0.00651392 -0.010571  ]
dense/kernel:0
(1152, 128)
[[-0.10254034  0.16805229 -0.00240346 ... -0.03528214  0.02569219
   0.06162195]
 [-0.01724831  0.06980141  0.050875   ...  0.02313947 -0.03218291
   0.00420517]
 [-0.07527169 -0.07283521  0.00439309 ... -0.01749773 -0.01627654
   0.05815945]
 ...
 [ 0.14095297  0.0276544   0.05567126 ...  0.06243731  0.00903778
  -0.00578257]
 [-0.01171911  0.06543101  0.01423603 ...  0.02807558  0.02629888
   0.03666238]
 [-0.01473942 -0.05964835 -0.057374   ...  0.06272782 -0.07051163
   0.06353815]]
dense/bias:0
(128,)
[ 0.02630669  0.04225089 -0.01470214  0.01006996 -0.01836774 -0.00455635
  0.0148614  -0.0116691   0.0170028  -0.02053981  0.02859722  0.00951139
 -0.01514539  0.00355567  0.03180692  0.00492038 -0.02483117  0.03399491
 -0.00883251  0.00043111  0.04278655  0.00544854  0.00687358 -0.0009734
  0.05733603  0.01345047 -0.0267812   0.01196082  0.0177781   0.02262939
 -0.01636231  0.02019324 -0.00909755  0.04507041  0.02336978  0.02723447
  0.00686381  0.00867418  0.035424    0.01955657 -0.01136567 -0.01143954
  0.01769456  0.00785229  0.01263223  0.01820079  0.02250776  0.03220667
  0.02301738  0.01969414  0.0127637  -0.00885078  0.00826465  0.036896
 -0.01661621  0.00725315  0.03440999 -0.00725885  0.01834431  0.03251934
 -0.00406983  0.03859977  0.00639132  0.03717878  0.00991663  0.02585414
  0.00239569  0.01746217  0.02492387  0.00213376  0.00850209  0.01299176
  0.01038598  0.00879443  0.01361227  0.00960828 -0.00824964  0.04002008
  0.02121228  0.02830575  0.01417004  0.01721765  0.01988218  0.00094867
 -0.00396751  0.02085536 -0.0192784   0.00538983 -0.01496179  0.01072301
  0.0080192   0.00380765 -0.01555116  0.01751296 -0.03336218  0.00497838
 -0.02598651  0.00771398  0.02399279  0.03535385 -0.01747704  0.01634946
  0.01287029  0.02504152  0.02317529  0.01426516  0.00816723  0.00271389
 -0.03111047  0.01649798  0.00980636 -0.02392386  0.01743315 -0.01128907
  0.02065429 -0.0122565   0.00802494  0.03389911 -0.00419789  0.03653132
  0.01251545  0.02147423  0.03347429 -0.00872667 -0.00768665 -0.00552248
  0.00843921 -0.01254544]
dense_1/kernel:0
(128, 10)
[[ 0.00062183  0.181548    0.11498614 ...  0.0419492   0.2194024
  -0.06830759]
 [-0.12616342  0.13017006 -0.12620202 ...  0.05775436  0.11630209
   0.09717502]
 [-0.0951314   0.15843846 -0.01687939 ... -0.12779832  0.18212356
   0.03286648]
 ...
 [ 0.03407149  0.1255263   0.12955284 ... -0.12631525  0.05544171
  -0.11778649]
 [ 0.1530057   0.08363675  0.1746607  ... -0.209924   -0.04694283
   0.12578972]
 [ 0.01419302 -0.18901442  0.17523909 ... -0.03689426 -0.00496163
  -0.01951485]]
dense_1/bias:0
(10,)
[-0.02049008  0.00193672  0.00356698 -0.00827443 -0.02646748  0.01910117
 -0.03636807  0.00642697  0.0438043  -0.00188932]
